<?xml version="1.0"?>
<opencv_storage>
<cascade>
  <stageType>BOOST</stageType>
  <featureType>HAAR</featureType>
  <height>24</height>
  <width>24</width>
  <stageParams>
    <boostType>GAB</boostType>
    <minHitRate>9.9699997901916504e-01</minHitRate>
    <maxFalseAlarm>6.9999998807907104e-01</maxFalseAlarm>
    <weightTrimRate>9.4999999999999996e-01</weightTrimRate>
    <maxDepth>1</maxDepth>
    <maxWeakCount>100</maxWeakCount></stageParams>
  <featureParams>
    <maxCatCount>0</maxCatCount>
    <featSize>1</featSize>
    <mode>BASIC</mode></featureParams>
  <stageNum>9</stageNum>
  <stages>
    <!-- stage 0 -->
    <_>
      <maxWeakCount>3</maxWeakCount>
      <stageThreshold>-7.6458817720413208e-01</stageThreshold>
      <weakClassifiers>
        <_>
          <internalNodes>
            0 -1 24 -1.4500871766358614e-03</internalNodes>
          <leafValues>
            3.4693878889083862e-01 -6.9642859697341919e-01</leafValues></_>
        <_>
          <internalNodes>
            0 -1 13 -6.2411790713667870e-03</internalNodes>
          <leafValues>
            3.6211371421813965e-01 -7.1797370910644531e-01</leafValues></_>
        <_>
          <internalNodes>
            0 -1 6 -1.1954421177506447e-02</internalNodes>
          <leafValues>
            7.7401155233383179e-01 -3.9355322718620300e-01</leafValues></_></weakClassifiers></_>
    <!-- stage 1 -->
    <_>
      <maxWeakCount>4</maxWeakCount>
      <stageThreshold>-1.1335250139236450e+00</stageThreshold>
      <weakClassifiers>
        <_>
          <internalNodes>
            0 -1 20 -2.9813647270202637e-03</internalNodes>
          <leafValues>
            2.7118644118309021e-01 -7.5490194559097290e-01</leafValues></_>
        <_>
          <internalNodes>
            0 -1 28 1.1558990925550461e-02</internalNodes>
          <leafValues>
            -3.9213204383850098e-01 7.2591489553451538e-01</leafValues></_>
        <_>
          <internalNodes>
            0 -1 5 5.3158188238739967e-03</internalNodes>
          <leafValues>
            -3.6142173409461975e-01 6.2630414962768555e-01</leafValues></_>
        <_>
          <internalNodes>
            0 -1 7 -1.4622658491134644e-03</internalNodes>
          <leafValues>
            3.9446529746055603e-01 -6.1279517412185669e-01</leafValues></_></weakClassifiers></_>
    <!-- stage 2 -->
    <_>
      <maxWeakCount>3</maxWeakCount>
      <stageThreshold>-8.2869386672973633e-01</stageThreshold>
      <weakClassifiers>
        <_>
          <internalNodes>
            0 -1 9 -1.3982399366796017e-02</internalNodes>
          <leafValues>
            4.0000000596046448e-01 -6.3636362552642822e-01</leafValues></_>
        <_>
          <internalNodes>
            0 -1 21 -2.6853743474930525e-04</internalNodes>
          <leafValues>
            2.7455392479896545e-01 -7.9872423410415649e-01</leafValues></_>
        <_>
          <internalNodes>
            0 -1 17 -4.8746210522949696e-03</internalNodes>
          <leafValues>
            6.6418075561523438e-01 -4.2996963858604431e-01</leafValues></_></weakClassifiers></_>
    <!-- stage 3 -->
    <_>
      <maxWeakCount>3</maxWeakCount>
      <stageThreshold>-6.9697898626327515e-01</stageThreshold>
      <weakClassifiers>
        <_>
          <internalNodes>
            0 -1 30 -1.0481813922524452e-02</internalNodes>
          <leafValues>
            5.9259259700775146e-01 -5.7462686300277710e-01</leafValues></_>
        <_>
          <internalNodes>
            0 -1 8 6.7048177123069763e-02</internalNodes>
          <leafValues>
            1.9068431854248047e-01 -8.5187506675720215e-01</leafValues></_>
        <_>
          <internalNodes>
            0 -1 10 4.0196171030402184e-03</internalNodes>
          <leafValues>
            -3.1116357445716858e-01 7.2952294349670410e-01</leafValues></_></weakClassifiers></_>
    <!-- stage 4 -->
    <_>
      <maxWeakCount>3</maxWeakCount>
      <stageThreshold>-8.1888180971145630e-01</stageThreshold>
      <weakClassifiers>
        <_>
          <internalNodes>
            0 -1 12 -5.5534560233354568e-03</internalNodes>
          <leafValues>
            6.9565218687057495e-01 -5.5797100067138672e-01</leafValues></_>
        <_>
          <internalNodes>
            0 -1 19 2.1007859613746405e-03</internalNodes>
          <leafValues>
            -4.2451044917106628e-01 6.5587174892425537e-01</leafValues></_>
        <_>
          <internalNodes>
            0 -1 2 -1.0951787233352661e-01</internalNodes>
          <leafValues>
            -9.1678255796432495e-01 2.2662176191806793e-01</leafValues></_></weakClassifiers></_>
    <!-- stage 5 -->
    <_>
      <maxWeakCount>3</maxWeakCount>
      <stageThreshold>-7.2134345769882202e-01</stageThreshold>
      <weakClassifiers>
        <_>
          <internalNodes>
            0 -1 25 3.0312871094793081e-03</internalNodes>
          <leafValues>
            -5.2280700206756592e-01 7.2972971200942993e-01</leafValues></_>
        <_>
          <internalNodes>
            0 -1 1 5.2973395213484764e-04</internalNodes>
          <leafValues>
            2.2053258121013641e-01 -8.6236047744750977e-01</leafValues></_>
        <_>
          <internalNodes>
            0 -1 3 -2.7405038475990295e-02</internalNodes>
          <leafValues>
            6.6382402181625366e-01 -3.5260549187660217e-01</leafValues></_></weakClassifiers></_>
    <!-- stage 6 -->
    <_>
      <maxWeakCount>5</maxWeakCount>
      <stageThreshold>-1.3486174345016479e+00</stageThreshold>
      <weakClassifiers>
        <_>
          <internalNodes>
            0 -1 15 5.9187691658735275e-03</internalNodes>
          <leafValues>
            -5.2816903591156006e-01 7.3684209585189819e-01</leafValues></_>
        <_>
          <internalNodes>
            0 -1 19 1.2825012672692537e-03</internalNodes>
          <leafValues>
            -4.2703595757484436e-01 4.5019689202308655e-01</leafValues></_>
        <_>
          <internalNodes>
            0 -1 31 -3.7463638000190258e-03</internalNodes>
          <leafValues>
            5.9475862979888916e-01 -3.6425459384918213e-01</leafValues></_>
        <_>
          <internalNodes>
            0 -1 4 -9.1270431876182556e-03</internalNodes>
          <leafValues>
            -6.1226892471313477e-01 3.6510848999023438e-01</leafValues></_>
        <_>
          <internalNodes>
            0 -1 0 -9.1231940314173698e-03</internalNodes>
          <leafValues>
            5.8311110734939575e-01 -3.8095620274543762e-01</leafValues></_></weakClassifiers></_>
    <!-- stage 7 -->
    <_>
      <maxWeakCount>5</maxWeakCount>
      <stageThreshold>-1.2934995889663696e+00</stageThreshold>
      <weakClassifiers>
        <_>
          <internalNodes>
            0 -1 22 2.0869630388915539e-03</internalNodes>
          <leafValues>
            -6.0617762804031372e-01 5.5555558204650879e-01</leafValues></_>
        <_>
          <internalNodes>
            0 -1 23 2.6908153668045998e-03</internalNodes>
          <leafValues>
            -4.3838438391685486e-01 6.2082839012145996e-01</leafValues></_>
        <_>
          <internalNodes>
            0 -1 27 -3.1966869719326496e-03</internalNodes>
          <leafValues>
            7.9823917150497437e-01 -2.7945020794868469e-01</leafValues></_>
        <_>
          <internalNodes>
            0 -1 16 -5.8007668703794479e-03</internalNodes>
          <leafValues>
            -8.7005531787872314e-01 3.0794870853424072e-01</leafValues></_>
        <_>
          <internalNodes>
            0 -1 11 4.1933301836252213e-03</internalNodes>
          <leafValues>
            -2.7743607759475708e-01 9.0046328306198120e-01</leafValues></_></weakClassifiers></_>
    <!-- stage 8 -->
    <_>
      <maxWeakCount>5</maxWeakCount>
      <stageThreshold>-9.5874905586242676e-01</stageThreshold>
      <weakClassifiers>
        <_>
          <internalNodes>
            0 -1 24 -1.7500433605164289e-03</internalNodes>
          <leafValues>
            4.5238095521926880e-01 -6.7226892709732056e-01</leafValues></_>
        <_>
          <internalNodes>
            0 -1 14 -3.5761715844273567e-03</internalNodes>
          <leafValues>
            9.6097546815872192e-01 -3.6315104365348816e-01</leafValues></_>
        <_>
          <internalNodes>
            0 -1 29 1.7425792757421732e-03</internalNodes>
          <leafValues>
            -3.1758177280426025e-01 7.8086221218109131e-01</leafValues></_>
        <_>
          <internalNodes>
            0 -1 18 -1.2023167219012976e-03</internalNodes>
          <leafValues>
            8.3569020032882690e-01 -3.0565270781517029e-01</leafValues></_>
        <_>
          <internalNodes>
            0 -1 26 -1.0292705846950412e-03</internalNodes>
          <leafValues>
            6.9990533590316772e-01 -3.2981964945793152e-01</leafValues></_></weakClassifiers></_></stages>
  <features>
    <_>
      <rects>
        <_>
          0 5 4 15 -1.</_>
        <_>
          2 5 2 15 2.</_></rects>
      <tilted>0</tilted></_>
    <_>
      <rects>
        <_>
          1 1 2 2 -1.</_>
        <_>
          1 1 1 1 2.</_>
        <_>
          2 2 1 1 2.</_></rects>
      <tilted>0</tilted></_>
    <_>
      <rects>
        <_>
          2 5 17 12 -1.</_>
        <_>
          2 11 17 6 2.</_></rects>
      <tilted>0</tilted></_>
    <_>
      <rects>
        <_>
          2 15 8 7 -1.</_>
        <_>
          6 15 4 7 2.</_></rects>
      <tilted>0</tilted></_>
    <_>
      <rects>
        <_>
          2 18 18 6 -1.</_>
        <_>
          2 21 18 3 2.</_></rects>
      <tilted>0</tilted></_>
    <_>
      <rects>
        <_>
          3 7 3 7 -1.</_>
        <_>
          4 7 1 7 3.</_></rects>
      <tilted>0</tilted></_>
    <_>
      <rects>
        <_>
          4 6 4 14 -1.</_>
        <_>
          4 6 2 7 2.</_>
        <_>
          6 13 2 7 2.</_></rects>
      <tilted>0</tilted></_>
    <_>
      <rects>
        <_>
          4 11 15 2 -1.</_>
        <_>
          9 11 5 2 3.</_></rects>
      <tilted>0</tilted></_>
    <_>
      <rects>
        <_>
          5 0 10 22 -1.</_>
        <_>
          5 11 10 11 2.</_></rects>
      <tilted>0</tilted></_>
    <_>
      <rects>
        <_>
          6 9 8 4 -1.</_>
        <_>
          10 9 4 4 2.</_></rects>
      <tilted>0</tilted></_>
    <_>
      <rects>
        <_>
          6 11 2 3 -1.</_>
        <_>
          7 11 1 3 2.</_></rects>
      <tilted>0</tilted></_>
    <_>
      <rects>
        <_>
          6 12 3 1 -1.</_>
        <_>
          7 12 1 1 3.</_></rects>
      <tilted>0</tilted></_>
    <_>
      <rects>
        <_>
          7 8 2 6 -1.</_>
        <_>
          7 8 1 3 2.</_>
        <_>
          8 11 1 3 2.</_></rects>
      <tilted>0</tilted></_>
    <_>
      <rects>
        <_>
          7 8 5 15 -1.</_>
        <_>
          7 13 5 5 3.</_></rects>
      <tilted>0</tilted></_>
    <_>
      <rects>
        <_>
          7 11 3 1 -1.</_>
        <_>
          8 11 1 1 3.</_></rects>
      <tilted>0</tilted></_>
    <_>
      <rects>
        <_>
          8 12 3 2 -1.</_>
        <_>
          9 12 1 2 3.</_></rects>
      <tilted>0</tilted></_>
    <_>
      <rects>
        <_>
          8 18 2 6 -1.</_>
        <_>
          8 20 2 2 3.</_></rects>
      <tilted>0</tilted></_>
    <_>
      <rects>
        <_>
          9 10 3 4 -1.</_>
        <_>
          10 10 1 4 3.</_></rects>
      <tilted>0</tilted></_>
    <_>
      <rects>
        <_>
          10 12 2 2 -1.</_>
        <_>
          10 12 1 1 2.</_>
        <_>
          11 13 1 1 2.</_></rects>
      <tilted>0</tilted></_>
    <_>
      <rects>
        <_>
          11 12 2 2 -1.</_>
        <_>
          11 12 1 1 2.</_>
        <_>
          12 13 1 1 2.</_></rects>
      <tilted>0</tilted></_>
    <_>
      <rects>
        <_>
          12 9 1 6 -1.</_>
        <_>
          12 11 1 2 3.</_></rects>
      <tilted>0</tilted></_>
    <_>
      <rects>
        <_>
          12 11 1 3 -1.</_>
        <_>
          12 12 1 1 3.</_></rects>
      <tilted>0</tilted></_>
    <_>
      <rects>
        <_>
          12 11 2 2 -1.</_>
        <_>
          12 11 1 1 2.</_>
        <_>
          13 12 1 1 2.</_></rects>
      <tilted>0</tilted></_>
    <_>
      <rects>
        <_>
          12 12 1 3 -1.</_>
        <_>
          12 13 1 1 3.</_></rects>
      <tilted>0</tilted></_>
    <_>
      <rects>
        <_>
          12 12 2 2 -1.</_>
        <_>
          12 12 1 1 2.</_>
        <_>
          13 13 1 1 2.</_></rects>
      <tilted>0</tilted></_>
    <_>
      <rects>
        <_>
          13 11 1 2 -1.</_>
        <_>
          13 12 1 1 2.</_></rects>
      <tilted>0</tilted></_>
    <_>
      <rects>
        <_>
          13 11 2 2 -1.</_>
        <_>
          13 11 1 1 2.</_>
        <_>
          14 12 1 1 2.</_></rects>
      <tilted>0</tilted></_>
    <_>
      <rects>
        <_>
          14 14 3 1 -1.</_>
        <_>
          15 14 1 1 3.</_></rects>
      <tilted>0</tilted></_>
    <_>
      <rects>
        <_>
          16 3 4 12 -1.</_>
        <_>
          16 3 2 6 2.</_>
        <_>
          18 9 2 6 2.</_></rects>
      <tilted>0</tilted></_>
    <_>
      <rects>
        <_>
          17 14 3 1 -1.</_>
        <_>
          18 14 1 1 3.</_></rects>
      <tilted>0</tilted></_>
    <_>
      <rects>
        <_>
          18 10 4 4 -1.</_>
        <_>
          20 10 2 4 2.</_></rects>
      <tilted>0</tilted></_>
    <_>
      <rects>
        <_>
          19 9 2 5 -1.</_>
        <_>
          20 9 1 5 2.</_></rects>
      <tilted>0</tilted></_></features></cascade>
</opencv_storage>
