<?xml version="1.0"?>
<opencv_storage>
<cascade>
  <stageType>BOOST</stageType>
  <featureType>HAAR</featureType>
  <height>24</height>
  <width>24</width>
  <stageParams>
    <boostType>GAB</boostType>
    <minHitRate>9.9500000476837158e-01</minHitRate>
    <maxFalseAlarm>5.0000000000000000e-01</maxFalseAlarm>
    <weightTrimRate>9.4999999999999996e-01</weightTrimRate>
    <maxDepth>1</maxDepth>
    <maxWeakCount>100</maxWeakCount></stageParams>
  <featureParams>
    <maxCatCount>0</maxCatCount>
    <featSize>1</featSize>
    <mode>BASIC</mode></featureParams>
  <stageNum>20</stageNum>
  <stages>
    <!-- stage 0 -->
    <_>
      <maxWeakCount>4</maxWeakCount>
      <stageThreshold>3.1750613451004028e-01</stageThreshold>
      <weakClassifiers>
        <_>
          <internalNodes>
            0 -1 12 3.3907139301300049e-01</internalNodes>
          <leafValues>
            8.7619048357009888e-01 -8.0000001192092896e-01</leafValues></_>
        <_>
          <internalNodes>
            0 -1 11 5.5867554619908333e-03</internalNodes>
          <leafValues>
            8.7839531898498535e-01 -7.5042158365249634e-01</leafValues></_>
        <_>
          <internalNodes>
            0 -1 72 9.8929286468774080e-04</internalNodes>
          <leafValues>
            -3.8145309686660767e-01 9.8695844411849976e-01</leafValues></_>
        <_>
          <internalNodes>
            0 -1 16 1.0953223705291748e-01</internalNodes>
          <leafValues>
            6.2368309497833252e-01 -7.4784761667251587e-01</leafValues></_></weakClassifiers></_>
    <!-- stage 1 -->
    <_>
      <maxWeakCount>4</maxWeakCount>
      <stageThreshold>-1.3300999999046326e-01</stageThreshold>
      <weakClassifiers>
        <_>
          <internalNodes>
            0 -1 63 -1.9208758603781462e-03</internalNodes>
          <leafValues>
            9.6428573131561279e-01 -2.7777777984738350e-02</leafValues></_>
        <_>
          <internalNodes>
            0 -1 71 -2.4140960886143148e-04</internalNodes>
          <leafValues>
            8.6608839035034180e-01 -3.6781167984008789e-01</leafValues></_>
        <_>
          <internalNodes>
            0 -1 79 -5.2153819706290960e-04</internalNodes>
          <leafValues>
            9.3845659494400024e-01 -3.8687399029731750e-01</leafValues></_>
        <_>
          <internalNodes>
            0 -1 37 -6.0393696185201406e-04</internalNodes>
          <leafValues>
            9.3613076210021973e-01 -3.4261006116867065e-01</leafValues></_></weakClassifiers></_>
    <!-- stage 2 -->
    <_>
      <maxWeakCount>5</maxWeakCount>
      <stageThreshold>6.2509661912918091e-01</stageThreshold>
      <weakClassifiers>
        <_>
          <internalNodes>
            0 -1 33 5.9293519705533981e-02</internalNodes>
          <leafValues>
            7.8571426868438721e-01 -1.</leafValues></_>
        <_>
          <internalNodes>
            0 -1 72 5.7778524933382869e-04</internalNodes>
          <leafValues>
            -3.0470016598701477e-01 9.3397706747055054e-01</leafValues></_>
        <_>
          <internalNodes>
            0 -1 57 -3.9885262958705425e-03</internalNodes>
          <leafValues>
            8.0364227294921875e-01 -4.6949476003646851e-01</leafValues></_>
        <_>
          <internalNodes>
            0 -1 36 -2.8843202162533998e-03</internalNodes>
          <leafValues>
            1. -3.1923642754554749e-01</leafValues></_>
        <_>
          <internalNodes>
            0 -1 96 -5.3744425531476736e-04</internalNodes>
          <leafValues>
            9.8819261789321899e-01 -3.0586355924606323e-01</leafValues></_></weakClassifiers></_>
    <!-- stage 3 -->
    <_>
      <maxWeakCount>4</maxWeakCount>
      <stageThreshold>5.9722286462783813e-01</stageThreshold>
      <weakClassifiers>
        <_>
          <internalNodes>
            0 -1 13 5.8902636170387268e-02</internalNodes>
          <leafValues>
            7.6888889074325562e-01 -8.6666667461395264e-01</leafValues></_>
        <_>
          <internalNodes>
            0 -1 61 -2.8799816966056824e-02</internalNodes>
          <leafValues>
            -7.4941593408584595e-01 6.7533236742019653e-01</leafValues></_>
        <_>
          <internalNodes>
            0 -1 85 -1.9462807103991508e-03</internalNodes>
          <leafValues>
            1. -4.2225006222724915e-01</leafValues></_>
        <_>
          <internalNodes>
            0 -1 88 -1.0159526718780398e-03</internalNodes>
          <leafValues>
            1. -2.8490608930587769e-01</leafValues></_></weakClassifiers></_>
    <!-- stage 4 -->
    <_>
      <maxWeakCount>5</maxWeakCount>
      <stageThreshold>3.7067005038261414e-01</stageThreshold>
      <weakClassifiers>
        <_>
          <internalNodes>
            0 -1 31 9.8390942439436913e-03</internalNodes>
          <leafValues>
            7.9723501205444336e-01 -5.6521737575531006e-01</leafValues></_>
        <_>
          <internalNodes>
            0 -1 76 -7.0855906233191490e-04</internalNodes>
          <leafValues>
            8.4536778926849365e-01 -3.8772630691528320e-01</leafValues></_>
        <_>
          <internalNodes>
            0 -1 25 -1.9435971044003963e-03</internalNodes>
          <leafValues>
            9.2576354742050171e-01 -3.0584916472434998e-01</leafValues></_>
        <_>
          <internalNodes>
            0 -1 98 -5.2567454986274242e-04</internalNodes>
          <leafValues>
            9.0464299917221069e-01 -3.0884510278701782e-01</leafValues></_>
        <_>
          <internalNodes>
            0 -1 58 -7.3387473821640015e-04</internalNodes>
          <leafValues>
            7.0669531822204590e-01 -4.7414869070053101e-01</leafValues></_></weakClassifiers></_>
    <!-- stage 5 -->
    <_>
      <maxWeakCount>7</maxWeakCount>
      <stageThreshold>4.0860357880592346e-01</stageThreshold>
      <weakClassifiers>
        <_>
          <internalNodes>
            0 -1 45 4.4197008013725281e-02</internalNodes>
          <leafValues>
            7.6785713434219360e-01 -7.5000000000000000e-01</leafValues></_>
        <_>
          <internalNodes>
            0 -1 68 -9.4342418015003204e-04</internalNodes>
          <leafValues>
            9.6639120578765869e-01 -2.0353665947914124e-01</leafValues></_>
        <_>
          <internalNodes>
            0 -1 79 -1.9895837176591158e-03</internalNodes>
          <leafValues>
            1. -2.5464040040969849e-01</leafValues></_>
        <_>
          <internalNodes>
            0 -1 106 9.7314417362213135e-03</internalNodes>
          <leafValues>
            -2.5252887606620789e-01 9.5833551883697510e-01</leafValues></_>
        <_>
          <internalNodes>
            0 -1 20 5.9202412376180291e-04</internalNodes>
          <leafValues>
            -2.8467592597007751e-01 9.7987776994705200e-01</leafValues></_>
        <_>
          <internalNodes>
            0 -1 100 2.3584673181176186e-03</internalNodes>
          <leafValues>
            -2.6261419057846069e-01 1.</leafValues></_>
        <_>
          <internalNodes>
            0 -1 30 -1.6437361482530832e-03</internalNodes>
          <leafValues>
            9.1739439964294434e-01 -3.5589793324470520e-01</leafValues></_></weakClassifiers></_>
    <!-- stage 6 -->
    <_>
      <maxWeakCount>5</maxWeakCount>
      <stageThreshold>2.7661159634590149e-01</stageThreshold>
      <weakClassifiers>
        <_>
          <internalNodes>
            0 -1 48 -2.6382032781839371e-02</internalNodes>
          <leafValues>
            -6.3636362552642822e-01 7.9816514253616333e-01</leafValues></_>
        <_>
          <internalNodes>
            0 -1 19 -1.6051348065957427e-03</internalNodes>
          <leafValues>
            8.9196044206619263e-01 -1.7937283217906952e-01</leafValues></_>
        <_>
          <internalNodes>
            0 -1 97 -1.4600264839828014e-02</internalNodes>
          <leafValues>
            8.3618098497390747e-01 -2.8851255774497986e-01</leafValues></_>
        <_>
          <internalNodes>
            0 -1 0 -1.4419500948861241e-03</internalNodes>
          <leafValues>
            8.7473237514495850e-01 -3.7741488218307495e-01</leafValues></_>
        <_>
          <internalNodes>
            0 -1 38 8.1479933578521013e-04</internalNodes>
          <leafValues>
            -5.6520503759384155e-01 6.0960209369659424e-01</leafValues></_></weakClassifiers></_>
    <!-- stage 7 -->
    <_>
      <maxWeakCount>6</maxWeakCount>
      <stageThreshold>1.6646319627761841e-01</stageThreshold>
      <weakClassifiers>
        <_>
          <internalNodes>
            0 -1 3 6.1157740652561188e-02</internalNodes>
          <leafValues>
            7.5438594818115234e-01 -1.</leafValues></_>
        <_>
          <internalNodes>
            0 -1 79 -7.7807856723666191e-04</internalNodes>
          <leafValues>
            7.6372951269149780e-01 -2.5075587630271912e-01</leafValues></_>
        <_>
          <internalNodes>
            0 -1 42 -6.9641578011214733e-04</internalNodes>
          <leafValues>
            9.5746755599975586e-01 -3.1635147333145142e-01</leafValues></_>
        <_>
          <internalNodes>
            0 -1 42 6.0709664830937982e-04</internalNodes>
          <leafValues>
            -3.4404626488685608e-01 9.2665934562683105e-01</leafValues></_>
        <_>
          <internalNodes>
            0 -1 110 -2.0471806637942791e-03</internalNodes>
          <leafValues>
            7.5410455465316772e-01 -3.2096031308174133e-01</leafValues></_>
        <_>
          <internalNodes>
            0 -1 87 -6.0983891598880291e-03</internalNodes>
          <leafValues>
            8.1674569845199585e-01 -3.7029418349266052e-01</leafValues></_></weakClassifiers></_>
    <!-- stage 8 -->
    <_>
      <maxWeakCount>7</maxWeakCount>
      <stageThreshold>-7.4992664158344269e-02</stageThreshold>
      <weakClassifiers>
        <_>
          <internalNodes>
            0 -1 4 8.2596257328987122e-02</internalNodes>
          <leafValues>
            7.3913043737411499e-01 -1.</leafValues></_>
        <_>
          <internalNodes>
            0 -1 9 -1.9783081952482462e-03</internalNodes>
          <leafValues>
            1. -1.6136772930622101e-01</leafValues></_>
        <_>
          <internalNodes>
            0 -1 103 -3.0442550778388977e-03</internalNodes>
          <leafValues>
            9.8082935810089111e-01 -1.8797171115875244e-01</leafValues></_>
        <_>
          <internalNodes>
            0 -1 64 -1.0710074566304684e-03</internalNodes>
          <leafValues>
            9.8044520616531372e-01 -2.1594707667827606e-01</leafValues></_>
        <_>
          <internalNodes>
            0 -1 56 -2.5447346270084381e-03</internalNodes>
          <leafValues>
            7.5545036792755127e-01 -3.0529370903968811e-01</leafValues></_>
        <_>
          <internalNodes>
            0 -1 28 5.9094782918691635e-03</internalNodes>
          <leafValues>
            -2.9857853055000305e-01 9.0397185087203979e-01</leafValues></_>
        <_>
          <internalNodes>
            0 -1 74 2.8541781939566135e-03</internalNodes>
          <leafValues>
            4.3876042962074280e-01 -7.0570838451385498e-01</leafValues></_></weakClassifiers></_>
    <!-- stage 9 -->
    <_>
      <maxWeakCount>6</maxWeakCount>
      <stageThreshold>-4.9247214198112488e-01</stageThreshold>
      <weakClassifiers>
        <_>
          <internalNodes>
            0 -1 7 -4.6845012903213501e-01</internalNodes>
          <leafValues>
            -1. 7.5438594818115234e-01</leafValues></_>
        <_>
          <internalNodes>
            0 -1 59 5.5074780248105526e-03</internalNodes>
          <leafValues>
            5.3679275512695312e-01 -5.6681263446807861e-01</leafValues></_>
        <_>
          <internalNodes>
            0 -1 95 -1.5717548085376620e-03</internalNodes>
          <leafValues>
            8.9555585384368896e-01 -3.3335787057876587e-01</leafValues></_>
        <_>
          <internalNodes>
            0 -1 75 -2.1887905895709991e-03</internalNodes>
          <leafValues>
            6.4449268579483032e-01 -4.2578116059303284e-01</leafValues></_>
        <_>
          <internalNodes>
            0 -1 65 -1.4930691570043564e-02</internalNodes>
          <leafValues>
            -7.2757720947265625e-01 4.3864402174949646e-01</leafValues></_>
        <_>
          <internalNodes>
            0 -1 44 -5.1667133811861277e-04</internalNodes>
          <leafValues>
            9.5720624923706055e-01 -3.5955044627189636e-01</leafValues></_></weakClassifiers></_>
    <!-- stage 10 -->
    <_>
      <maxWeakCount>7</maxWeakCount>
      <stageThreshold>1.3536387681961060e-01</stageThreshold>
      <weakClassifiers>
        <_>
          <internalNodes>
            0 -1 66 -7.0624309591948986e-04</internalNodes>
          <leafValues>
            9.0303027629852295e-01 1.4666666090488434e-01</leafValues></_>
        <_>
          <internalNodes>
            0 -1 72 1.5417427057400346e-03</internalNodes>
          <leafValues>
            -1.4967988431453705e-01 8.6137545108795166e-01</leafValues></_>
        <_>
          <internalNodes>
            0 -1 70 5.1358472555875778e-03</internalNodes>
          <leafValues>
            -2.7119621634483337e-01 8.1913191080093384e-01</leafValues></_>
        <_>
          <internalNodes>
            0 -1 52 -3.9428146556019783e-03</internalNodes>
          <leafValues>
            8.9394193887710571e-01 -3.0998113751411438e-01</leafValues></_>
        <_>
          <internalNodes>
            0 -1 1 -6.4275085926055908e-02</internalNodes>
          <leafValues>
            -5.2868652343750000e-01 5.3377956151962280e-01</leafValues></_>
        <_>
          <internalNodes>
            0 -1 60 -3.4057758748531342e-03</internalNodes>
          <leafValues>
            6.8660569190979004e-01 -4.7817426919937134e-01</leafValues></_>
        <_>
          <internalNodes>
            0 -1 64 -6.2829430680721998e-04</internalNodes>
          <leafValues>
            7.7651137113571167e-01 -4.2637893557548523e-01</leafValues></_></weakClassifiers></_>
    <!-- stage 11 -->
    <_>
      <maxWeakCount>8</maxWeakCount>
      <stageThreshold>4.5076292008161545e-02</stageThreshold>
      <weakClassifiers>
        <_>
          <internalNodes>
            0 -1 6 -4.1004352271556854e-02</internalNodes>
          <leafValues>
            -1. 7.3913043737411499e-01</leafValues></_>
        <_>
          <internalNodes>
            0 -1 69 -1.1593974195420742e-03</internalNodes>
          <leafValues>
            6.9636386632919312e-01 -3.3016318082809448e-01</leafValues></_>
        <_>
          <internalNodes>
            0 -1 84 -4.7129270387813449e-04</internalNodes>
          <leafValues>
            8.7013399600982666e-01 -3.0391249060630798e-01</leafValues></_>
        <_>
          <internalNodes>
            0 -1 92 -2.2060759365558624e-03</internalNodes>
          <leafValues>
            9.2849659919738770e-01 -2.4754783511161804e-01</leafValues></_>
        <_>
          <internalNodes>
            0 -1 62 -1.7772831022739410e-02</internalNodes>
          <leafValues>
            -8.1099629402160645e-01 3.9211946725845337e-01</leafValues></_>
        <_>
          <internalNodes>
            0 -1 47 -1.1756276944652200e-03</internalNodes>
          <leafValues>
            6.9745522737503052e-01 -4.4575929641723633e-01</leafValues></_>
        <_>
          <internalNodes>
            0 -1 77 1.4005405828356743e-03</internalNodes>
          <leafValues>
            -4.0384873747825623e-01 7.5556653738021851e-01</leafValues></_>
        <_>
          <internalNodes>
            0 -1 49 -1.5572041738778353e-03</internalNodes>
          <leafValues>
            6.4505791664123535e-01 -4.4546470046043396e-01</leafValues></_></weakClassifiers></_>
    <!-- stage 12 -->
    <_>
      <maxWeakCount>7</maxWeakCount>
      <stageThreshold>7.0843353867530823e-02</stageThreshold>
      <weakClassifiers>
        <_>
          <internalNodes>
            0 -1 93 -3.7354782223701477e-02</internalNodes>
          <leafValues>
            -1. 7.3913043737411499e-01</leafValues></_>
        <_>
          <internalNodes>
            0 -1 107 -6.0363262891769409e-03</internalNodes>
          <leafValues>
            8.5827612876892090e-01 -1.8186137080192566e-01</leafValues></_>
        <_>
          <internalNodes>
            0 -1 105 -2.2229012101888657e-03</internalNodes>
          <leafValues>
            9.0298491716384888e-01 -2.5022324919700623e-01</leafValues></_>
        <_>
          <internalNodes>
            0 -1 89 -4.8663487541489303e-04</internalNodes>
          <leafValues>
            7.4962592124938965e-01 -3.3366554975509644e-01</leafValues></_>
        <_>
          <internalNodes>
            0 -1 109 -1.6445717774331570e-03</internalNodes>
          <leafValues>
            6.8393182754516602e-01 -3.6132729053497314e-01</leafValues></_>
        <_>
          <internalNodes>
            0 -1 21 -4.5415814965963364e-03</internalNodes>
          <leafValues>
            8.0814641714096069e-01 -3.0375987291336060e-01</leafValues></_>
        <_>
          <internalNodes>
            0 -1 26 -1.3974539935588837e-02</internalNodes>
          <leafValues>
            8.4478664398193359e-01 -2.7758723497390747e-01</leafValues></_></weakClassifiers></_>
    <!-- stage 13 -->
    <_>
      <maxWeakCount>6</maxWeakCount>
      <stageThreshold>2.2793011367321014e-01</stageThreshold>
      <weakClassifiers>
        <_>
          <internalNodes>
            0 -1 54 -1.8110960721969604e-02</internalNodes>
          <leafValues>
            -1. 7.3913043737411499e-01</leafValues></_>
        <_>
          <internalNodes>
            0 -1 82 2.3721987381577492e-03</internalNodes>
          <leafValues>
            -9.3778811395168304e-02 1.</leafValues></_>
        <_>
          <internalNodes>
            0 -1 108 6.7014631349593401e-04</internalNodes>
          <leafValues>
            6.2317514419555664e-01 -3.7002989649772644e-01</leafValues></_>
        <_>
          <internalNodes>
            0 -1 94 2.4630655534565449e-03</internalNodes>
          <leafValues>
            -3.5610142350196838e-01 8.2275146245956421e-01</leafValues></_>
        <_>
          <internalNodes>
            0 -1 50 -2.0874361507594585e-03</internalNodes>
          <leafValues>
            8.8505411148071289e-01 -2.7827194333076477e-01</leafValues></_>
        <_>
          <internalNodes>
            0 -1 5 -1.1440597474575043e-02</internalNodes>
          <leafValues>
            6.5620601177215576e-01 -4.0622329711914062e-01</leafValues></_></weakClassifiers></_>
    <!-- stage 14 -->
    <_>
      <maxWeakCount>5</maxWeakCount>
      <stageThreshold>3.8663771748542786e-01</stageThreshold>
      <weakClassifiers>
        <_>
          <internalNodes>
            0 -1 43 6.0822986066341400e-02</internalNodes>
          <leafValues>
            7.5438594818115234e-01 -1.</leafValues></_>
        <_>
          <internalNodes>
            0 -1 23 -3.6226990632712841e-03</internalNodes>
          <leafValues>
            -4.1622823476791382e-01 7.0851039886474609e-01</leafValues></_>
        <_>
          <internalNodes>
            0 -1 81 1.4877906069159508e-03</internalNodes>
          <leafValues>
            -3.3093655109405518e-01 9.1584372520446777e-01</leafValues></_>
        <_>
          <internalNodes>
            0 -1 40 3.4198616631329060e-03</internalNodes>
          <leafValues>
            -3.3517277240753174e-01 7.5236934423446655e-01</leafValues></_>
        <_>
          <internalNodes>
            0 -1 78 1.2311455793678761e-03</internalNodes>
          <leafValues>
            -3.7295281887054443e-01 7.5067347288131714e-01</leafValues></_></weakClassifiers></_>
    <!-- stage 15 -->
    <_>
      <maxWeakCount>8</maxWeakCount>
      <stageThreshold>2.3745939135551453e-01</stageThreshold>
      <weakClassifiers>
        <_>
          <internalNodes>
            0 -1 90 4.9052424728870392e-02</internalNodes>
          <leafValues>
            7.4672490358352661e-01 -1.</leafValues></_>
        <_>
          <internalNodes>
            0 -1 101 -4.8535730456933379e-04</internalNodes>
          <leafValues>
            7.1687853336334229e-01 -2.4356284737586975e-01</leafValues></_>
        <_>
          <internalNodes>
            0 -1 27 -1.3840585947036743e-02</internalNodes>
          <leafValues>
            5.8558702468872070e-01 -4.5556670427322388e-01</leafValues></_>
        <_>
          <internalNodes>
            0 -1 35 -1.7353487201035023e-03</internalNodes>
          <leafValues>
            6.7891144752502441e-01 -3.5485190153121948e-01</leafValues></_>
        <_>
          <internalNodes>
            0 -1 10 2.2060312330722809e-03</internalNodes>
          <leafValues>
            -2.6978245377540588e-01 9.6840488910675049e-01</leafValues></_>
        <_>
          <internalNodes>
            0 -1 112 1.0736907133832574e-03</internalNodes>
          <leafValues>
            4.2383766174316406e-01 -6.1225914955139160e-01</leafValues></_>
        <_>
          <internalNodes>
            0 -1 86 -1.7747995443642139e-03</internalNodes>
          <leafValues>
            9.1581851243972778e-01 -3.0197235941886902e-01</leafValues></_>
        <_>
          <internalNodes>
            0 -1 15 -1.0028388351202011e-03</internalNodes>
          <leafValues>
            8.8847774267196655e-01 -2.6780828833580017e-01</leafValues></_></weakClassifiers></_>
    <!-- stage 16 -->
    <_>
      <maxWeakCount>7</maxWeakCount>
      <stageThreshold>3.1162756681442261e-01</stageThreshold>
      <weakClassifiers>
        <_>
          <internalNodes>
            0 -1 73 -2.2541247308254242e-02</internalNodes>
          <leafValues>
            -5.0000000000000000e-01 7.7272725105285645e-01</leafValues></_>
        <_>
          <internalNodes>
            0 -1 102 -3.7339176051318645e-03</internalNodes>
          <leafValues>
            8.4172230958938599e-01 -1.3325868546962738e-01</leafValues></_>
        <_>
          <internalNodes>
            0 -1 53 3.5303831100463867e-03</internalNodes>
          <leafValues>
            -2.0469608902931213e-01 8.6815321445465088e-01</leafValues></_>
        <_>
          <internalNodes>
            0 -1 51 2.0794530864804983e-03</internalNodes>
          <leafValues>
            -2.2561763226985931e-01 9.6723473072052002e-01</leafValues></_>
        <_>
          <internalNodes>
            0 -1 83 7.9295737668871880e-04</internalNodes>
          <leafValues>
            -2.7121368050575256e-01 7.5350171327590942e-01</leafValues></_>
        <_>
          <internalNodes>
            0 -1 39 -2.4978122673928738e-03</internalNodes>
          <leafValues>
            8.5641986131668091e-01 -2.5805363059043884e-01</leafValues></_>
        <_>
          <internalNodes>
            0 -1 24 1.4116708189249039e-03</internalNodes>
          <leafValues>
            -2.6839977502822876e-01 9.2948627471923828e-01</leafValues></_></weakClassifiers></_>
    <!-- stage 17 -->
    <_>
      <maxWeakCount>7</maxWeakCount>
      <stageThreshold>-4.6632224321365356e-01</stageThreshold>
      <weakClassifiers>
        <_>
          <internalNodes>
            0 -1 2 6.5460033714771271e-02</internalNodes>
          <leafValues>
            7.3913043737411499e-01 -1.</leafValues></_>
        <_>
          <internalNodes>
            0 -1 55 1.1463074479252100e-03</internalNodes>
          <leafValues>
            -3.2380548119544983e-01 7.3570764064788818e-01</leafValues></_>
        <_>
          <internalNodes>
            0 -1 17 6.2063667923212051e-02</internalNodes>
          <leafValues>
            3.9001575112342834e-01 -6.6804319620132446e-01</leafValues></_>
        <_>
          <internalNodes>
            0 -1 32 3.5192586481571198e-02</internalNodes>
          <leafValues>
            -3.2556930184364319e-01 8.6803454160690308e-01</leafValues></_>
        <_>
          <internalNodes>
            0 -1 34 -4.4028647243976593e-03</internalNodes>
          <leafValues>
            8.7901675701141357e-01 -2.8191405534744263e-01</leafValues></_>
        <_>
          <internalNodes>
            0 -1 40 1.0679808910936117e-03</internalNodes>
          <leafValues>
            -3.9556673169136047e-01 5.7219314575195312e-01</leafValues></_>
        <_>
          <internalNodes>
            0 -1 91 1.3619642704725266e-03</internalNodes>
          <leafValues>
            -3.7148478627204895e-01 7.0464259386062622e-01</leafValues></_></weakClassifiers></_>
    <!-- stage 18 -->
    <_>
      <maxWeakCount>8</maxWeakCount>
      <stageThreshold>-2.5539648532867432e-01</stageThreshold>
      <weakClassifiers>
        <_>
          <internalNodes>
            0 -1 18 -7.0127516984939575e-02</internalNodes>
          <leafValues>
            -8.3333331346511841e-01 7.4561405181884766e-01</leafValues></_>
        <_>
          <internalNodes>
            0 -1 80 -1.0347191710025072e-03</internalNodes>
          <leafValues>
            7.4203139543533325e-01 -3.2885259389877319e-01</leafValues></_>
        <_>
          <internalNodes>
            0 -1 14 1.5344373881816864e-02</internalNodes>
          <leafValues>
            3.4769442677497864e-01 -7.5246542692184448e-01</leafValues></_>
        <_>
          <internalNodes>
            0 -1 99 -6.9415976759046316e-04</internalNodes>
          <leafValues>
            6.9488114118576050e-01 -3.9948752522468567e-01</leafValues></_>
        <_>
          <internalNodes>
            0 -1 29 8.0748377367854118e-03</internalNodes>
          <leafValues>
            -3.0827361345291138e-01 8.4611016511917114e-01</leafValues></_>
        <_>
          <internalNodes>
            0 -1 41 -1.6904918011277914e-03</internalNodes>
          <leafValues>
            8.5647159814834595e-01 -2.7498880028724670e-01</leafValues></_>
        <_>
          <internalNodes>
            0 -1 46 -3.6708223633468151e-03</internalNodes>
          <leafValues>
            6.9976091384887695e-01 -3.3631649613380432e-01</leafValues></_>
        <_>
          <internalNodes>
            0 -1 79 -2.3790411651134491e-03</internalNodes>
          <leafValues>
            8.5906720161437988e-01 -3.1229975819587708e-01</leafValues></_></weakClassifiers></_>
    <!-- stage 19 -->
    <_>
      <maxWeakCount>5</maxWeakCount>
      <stageThreshold>4.7508165240287781e-02</stageThreshold>
      <weakClassifiers>
        <_>
          <internalNodes>
            0 -1 8 7.6595723628997803e-02</internalNodes>
          <leafValues>
            7.5438594818115234e-01 -1.</leafValues></_>
        <_>
          <internalNodes>
            0 -1 67 1.0906148701906204e-02</internalNodes>
          <leafValues>
            5.2937477827072144e-01 -7.6567876338958740e-01</leafValues></_>
        <_>
          <internalNodes>
            0 -1 111 -1.3890869449824095e-03</internalNodes>
          <leafValues>
            6.8631118535995483e-01 -5.2555334568023682e-01</leafValues></_>
        <_>
          <internalNodes>
            0 -1 22 1.9360377918928862e-03</internalNodes>
          <leafValues>
            -3.9312863349914551e-01 8.1541043519973755e-01</leafValues></_>
        <_>
          <internalNodes>
            0 -1 104 -1.5241901855915785e-03</internalNodes>
          <leafValues>
            9.7748297452926636e-01 -2.5743958353996277e-01</leafValues></_></weakClassifiers></_></stages>
  <features>
    <_>
      <rects>
        <_>
          0 1 4 10 -1.</_>
        <_>
          0 1 2 5 2.</_>
        <_>
          2 6 2 5 2.</_></rects>
      <tilted>0</tilted></_>
    <_>
      <rects>
        <_>
          0 4 11 20 -1.</_>
        <_>
          0 14 11 10 2.</_></rects>
      <tilted>0</tilted></_>
    <_>
      <rects>
        <_>
          0 10 22 6 -1.</_>
        <_>
          0 12 22 2 3.</_></rects>
      <tilted>0</tilted></_>
    <_>
      <rects>
        <_>
          0 11 18 6 -1.</_>
        <_>
          0 11 9 3 2.</_>
        <_>
          9 14 9 3 2.</_></rects>
      <tilted>0</tilted></_>
    <_>
      <rects>
        <_>
          0 12 24 4 -1.</_>
        <_>
          8 12 8 4 3.</_></rects>
      <tilted>0</tilted></_>
    <_>
      <rects>
        <_>
          1 6 10 12 -1.</_>
        <_>
          1 6 5 6 2.</_>
        <_>
          6 12 5 6 2.</_></rects>
      <tilted>0</tilted></_>
    <_>
      <rects>
        <_>
          1 7 15 4 -1.</_>
        <_>
          1 9 15 2 2.</_></rects>
      <tilted>0</tilted></_>
    <_>
      <rects>
        <_>
          2 0 21 22 -1.</_>
        <_>
          2 11 21 11 2.</_></rects>
      <tilted>0</tilted></_>
    <_>
      <rects>
        <_>
          2 7 9 8 -1.</_>
        <_>
          5 7 3 8 3.</_></rects>
      <tilted>0</tilted></_>
    <_>
      <rects>
        <_>
          2 10 3 4 -1.</_>
        <_>
          3 10 1 4 3.</_></rects>
      <tilted>0</tilted></_>
    <_>
      <rects>
        <_>
          2 16 6 2 -1.</_>
        <_>
          2 16 3 1 2.</_>
        <_>
          5 17 3 1 2.</_></rects>
      <tilted>0</tilted></_>
    <_>
      <rects>
        <_>
          3 0 13 2 -1.</_>
        <_>
          3 1 13 1 2.</_></rects>
      <tilted>0</tilted></_>
    <_>
      <rects>
        <_>
          3 0 21 24 -1.</_>
        <_>
          3 12 21 12 2.</_></rects>
      <tilted>0</tilted></_>
    <_>
      <rects>
        <_>
          3 8 20 5 -1.</_>
        <_>
          13 8 10 5 2.</_></rects>
      <tilted>0</tilted></_>
    <_>
      <rects>
        <_>
          3 9 9 6 -1.</_>
        <_>
          3 12 9 3 2.</_></rects>
      <tilted>0</tilted></_>
    <_>
      <rects>
        <_>
          3 10 2 2 -1.</_>
        <_>
          3 10 1 1 2.</_>
        <_>
          4 11 1 1 2.</_></rects>
      <tilted>0</tilted></_>
    <_>
      <rects>
        <_>
          4 0 9 24 -1.</_>
        <_>
          4 12 9 12 2.</_></rects>
      <tilted>0</tilted></_>
    <_>
      <rects>
        <_>
          4 5 18 13 -1.</_>
        <_>
          10 5 6 13 3.</_></rects>
      <tilted>0</tilted></_>
    <_>
      <rects>
        <_>
          4 9 10 7 -1.</_>
        <_>
          9 9 5 7 2.</_></rects>
      <tilted>0</tilted></_>
    <_>
      <rects>
        <_>
          4 11 3 3 -1.</_>
        <_>
          5 11 1 3 3.</_></rects>
      <tilted>0</tilted></_>
    <_>
      <rects>
        <_>
          4 13 2 2 -1.</_>
        <_>
          4 13 1 1 2.</_>
        <_>
          5 14 1 1 2.</_></rects>
      <tilted>0</tilted></_>
    <_>
      <rects>
        <_>
          4 17 20 3 -1.</_>
        <_>
          4 18 20 1 3.</_></rects>
      <tilted>0</tilted></_>
    <_>
      <rects>
        <_>
          5 6 6 4 -1.</_>
        <_>
          5 6 3 2 2.</_>
        <_>
          8 8 3 2 2.</_></rects>
      <tilted>0</tilted></_>
    <_>
      <rects>
        <_>
          5 9 12 8 -1.</_>
        <_>
          5 9 6 4 2.</_>
        <_>
          11 13 6 4 2.</_></rects>
      <tilted>0</tilted></_>
    <_>
      <rects>
        <_>
          5 10 2 2 -1.</_>
        <_>
          5 10 1 1 2.</_>
        <_>
          6 11 1 1 2.</_></rects>
      <tilted>0</tilted></_>
    <_>
      <rects>
        <_>
          5 16 13 2 -1.</_>
        <_>
          5 17 13 1 2.</_></rects>
      <tilted>0</tilted></_>
    <_>
      <rects>
        <_>
          6 7 8 6 -1.</_>
        <_>
          6 7 4 3 2.</_>
        <_>
          10 10 4 3 2.</_></rects>
      <tilted>0</tilted></_>
    <_>
      <rects>
        <_>
          6 8 4 15 -1.</_>
        <_>
          6 13 4 5 3.</_></rects>
      <tilted>0</tilted></_>
    <_>
      <rects>
        <_>
          6 10 3 3 -1.</_>
        <_>
          7 10 1 3 3.</_></rects>
      <tilted>0</tilted></_>
    <_>
      <rects>
        <_>
          6 10 3 6 -1.</_>
        <_>
          7 10 1 6 3.</_></rects>
      <tilted>0</tilted></_>
    <_>
      <rects>
        <_>
          6 10 4 2 -1.</_>
        <_>
          6 10 2 1 2.</_>
        <_>
          8 11 2 1 2.</_></rects>
      <tilted>0</tilted></_>
    <_>
      <rects>
        <_>
          6 10 12 3 -1.</_>
        <_>
          10 10 4 3 3.</_></rects>
      <tilted>0</tilted></_>
    <_>
      <rects>
        <_>
          7 0 5 18 -1.</_>
        <_>
          7 6 5 6 3.</_></rects>
      <tilted>0</tilted></_>
    <_>
      <rects>
        <_>
          7 6 14 7 -1.</_>
        <_>
          14 6 7 7 2.</_></rects>
      <tilted>0</tilted></_>
    <_>
      <rects>
        <_>
          7 7 2 6 -1.</_>
        <_>
          7 9 2 2 3.</_></rects>
      <tilted>0</tilted></_>
    <_>
      <rects>
        <_>
          7 9 2 7 -1.</_>
        <_>
          8 9 1 7 2.</_></rects>
      <tilted>0</tilted></_>
    <_>
      <rects>
        <_>
          7 10 3 4 -1.</_>
        <_>
          8 10 1 4 3.</_></rects>
      <tilted>0</tilted></_>
    <_>
      <rects>
        <_>
          7 10 4 2 -1.</_>
        <_>
          7 10 2 1 2.</_>
        <_>
          9 11 2 1 2.</_></rects>
      <tilted>0</tilted></_>
    <_>
      <rects>
        <_>
          7 10 6 8 -1.</_>
        <_>
          7 10 3 4 2.</_>
        <_>
          10 14 3 4 2.</_></rects>
      <tilted>0</tilted></_>
    <_>
      <rects>
        <_>
          7 12 3 2 -1.</_>
        <_>
          7 13 3 1 2.</_></rects>
      <tilted>0</tilted></_>
    <_>
      <rects>
        <_>
          8 6 4 4 -1.</_>
        <_>
          8 8 4 2 2.</_></rects>
      <tilted>0</tilted></_>
    <_>
      <rects>
        <_>
          8 7 1 3 -1.</_>
        <_>
          8 8 1 1 3.</_></rects>
      <tilted>0</tilted></_>
    <_>
      <rects>
        <_>
          8 8 2 2 -1.</_>
        <_>
          8 8 1 1 2.</_>
        <_>
          9 9 1 1 2.</_></rects>
      <tilted>0</tilted></_>
    <_>
      <rects>
        <_>
          8 8 9 12 -1.</_>
        <_>
          8 12 9 4 3.</_></rects>
      <tilted>0</tilted></_>
    <_>
      <rects>
        <_>
          8 9 3 1 -1.</_>
        <_>
          9 9 1 1 3.</_></rects>
      <tilted>0</tilted></_>
    <_>
      <rects>
        <_>
          8 9 6 15 -1.</_>
        <_>
          8 14 6 5 3.</_></rects>
      <tilted>0</tilted></_>
    <_>
      <rects>
        <_>
          8 15 4 6 -1.</_>
        <_>
          8 17 4 2 3.</_></rects>
      <tilted>0</tilted></_>
    <_>
      <rects>
        <_>
          9 9 2 4 -1.</_>
        <_>
          9 9 1 2 2.</_>
        <_>
          10 11 1 2 2.</_></rects>
      <tilted>0</tilted></_>
    <_>
      <rects>
        <_>
          9 9 8 6 -1.</_>
        <_>
          13 9 4 6 2.</_></rects>
      <tilted>0</tilted></_>
    <_>
      <rects>
        <_>
          9 10 2 3 -1.</_>
        <_>
          9 11 2 1 3.</_></rects>
      <tilted>0</tilted></_>
    <_>
      <rects>
        <_>
          9 11 3 1 -1.</_>
        <_>
          10 11 1 1 3.</_></rects>
      <tilted>0</tilted></_>
    <_>
      <rects>
        <_>
          9 11 2 2 -1.</_>
        <_>
          9 11 1 1 2.</_>
        <_>
          10 12 1 1 2.</_></rects>
      <tilted>0</tilted></_>
    <_>
      <rects>
        <_>
          9 12 3 2 -1.</_>
        <_>
          10 12 1 2 3.</_></rects>
      <tilted>0</tilted></_>
    <_>
      <rects>
        <_>
          9 12 2 4 -1.</_>
        <_>
          9 12 1 2 2.</_>
        <_>
          10 14 1 2 2.</_></rects>
      <tilted>0</tilted></_>
    <_>
      <rects>
        <_>
          9 12 4 5 -1.</_>
        <_>
          11 12 2 5 2.</_></rects>
      <tilted>0</tilted></_>
    <_>
      <rects>
        <_>
          9 17 4 6 -1.</_>
        <_>
          9 20 4 3 2.</_></rects>
      <tilted>0</tilted></_>
    <_>
      <rects>
        <_>
          9 20 12 4 -1.</_>
        <_>
          13 20 4 4 3.</_></rects>
      <tilted>0</tilted></_>
    <_>
      <rects>
        <_>
          10 1 4 9 -1.</_>
        <_>
          10 4 4 3 3.</_></rects>
      <tilted>0</tilted></_>
    <_>
      <rects>
        <_>
          10 3 4 6 -1.</_>
        <_>
          10 5 4 2 3.</_></rects>
      <tilted>0</tilted></_>
    <_>
      <rects>
        <_>
          10 6 4 6 -1.</_>
        <_>
          12 6 2 6 2.</_></rects>
      <tilted>0</tilted></_>
    <_>
      <rects>
        <_>
          10 8 4 6 -1.</_>
        <_>
          10 10 4 2 3.</_></rects>
      <tilted>0</tilted></_>
    <_>
      <rects>
        <_>
          10 8 10 8 -1.</_>
        <_>
          15 8 5 8 2.</_></rects>
      <tilted>0</tilted></_>
    <_>
      <rects>
        <_>
          10 9 2 12 -1.</_>
        <_>
          10 13 2 4 3.</_></rects>
      <tilted>0</tilted></_>
    <_>
      <rects>
        <_>
          10 9 3 6 -1.</_>
        <_>
          10 11 3 2 3.</_></rects>
      <tilted>0</tilted></_>
    <_>
      <rects>
        <_>
          10 12 2 2 -1.</_>
        <_>
          10 12 1 1 2.</_>
        <_>
          11 13 1 1 2.</_></rects>
      <tilted>0</tilted></_>
    <_>
      <rects>
        <_>
          11 3 2 12 -1.</_>
        <_>
          11 9 2 6 2.</_></rects>
      <tilted>0</tilted></_>
    <_>
      <rects>
        <_>
          11 8 3 6 -1.</_>
        <_>
          11 10 3 2 3.</_></rects>
      <tilted>0</tilted></_>
    <_>
      <rects>
        <_>
          11 8 7 6 -1.</_>
        <_>
          11 11 7 3 2.</_></rects>
      <tilted>0</tilted></_>
    <_>
      <rects>
        <_>
          11 9 1 3 -1.</_>
        <_>
          11 10 1 1 3.</_></rects>
      <tilted>0</tilted></_>
    <_>
      <rects>
        <_>
          11 11 3 2 -1.</_>
        <_>
          12 11 1 2 3.</_></rects>
      <tilted>0</tilted></_>
    <_>
      <rects>
        <_>
          11 11 4 6 -1.</_>
        <_>
          11 13 4 2 3.</_></rects>
      <tilted>0</tilted></_>
    <_>
      <rects>
        <_>
          11 12 3 1 -1.</_>
        <_>
          12 12 1 1 3.</_></rects>
      <tilted>0</tilted></_>
    <_>
      <rects>
        <_>
          11 12 2 2 -1.</_>
        <_>
          11 12 1 1 2.</_>
        <_>
          12 13 1 1 2.</_></rects>
      <tilted>0</tilted></_>
    <_>
      <rects>
        <_>
          12 6 6 10 -1.</_>
        <_>
          15 6 3 10 2.</_></rects>
      <tilted>0</tilted></_>
    <_>
      <rects>
        <_>
          12 8 2 6 -1.</_>
        <_>
          12 11 2 3 2.</_></rects>
      <tilted>0</tilted></_>
    <_>
      <rects>
        <_>
          12 10 4 6 -1.</_>
        <_>
          12 10 2 3 2.</_>
        <_>
          14 13 2 3 2.</_></rects>
      <tilted>0</tilted></_>
    <_>
      <rects>
        <_>
          12 11 1 3 -1.</_>
        <_>
          12 12 1 1 3.</_></rects>
      <tilted>0</tilted></_>
    <_>
      <rects>
        <_>
          12 11 2 2 -1.</_>
        <_>
          12 11 1 1 2.</_>
        <_>
          13 12 1 1 2.</_></rects>
      <tilted>0</tilted></_>
    <_>
      <rects>
        <_>
          12 12 2 1 -1.</_>
        <_>
          13 12 1 1 2.</_></rects>
      <tilted>0</tilted></_>
    <_>
      <rects>
        <_>
          12 12 2 2 -1.</_>
        <_>
          12 12 1 1 2.</_>
        <_>
          13 13 1 1 2.</_></rects>
      <tilted>0</tilted></_>
    <_>
      <rects>
        <_>
          12 13 2 9 -1.</_>
        <_>
          12 16 2 3 3.</_></rects>
      <tilted>0</tilted></_>
    <_>
      <rects>
        <_>
          12 15 4 2 -1.</_>
        <_>
          12 15 2 1 2.</_>
        <_>
          14 16 2 1 2.</_></rects>
      <tilted>0</tilted></_>
    <_>
      <rects>
        <_>
          12 17 2 4 -1.</_>
        <_>
          12 19 2 2 2.</_></rects>
      <tilted>0</tilted></_>
    <_>
      <rects>
        <_>
          13 5 3 12 -1.</_>
        <_>
          13 11 3 6 2.</_></rects>
      <tilted>0</tilted></_>
    <_>
      <rects>
        <_>
          13 7 1 3 -1.</_>
        <_>
          13 8 1 1 3.</_></rects>
      <tilted>0</tilted></_>
    <_>
      <rects>
        <_>
          13 7 2 10 -1.</_>
        <_>
          13 7 1 5 2.</_>
        <_>
          14 12 1 5 2.</_></rects>
      <tilted>0</tilted></_>
    <_>
      <rects>
        <_>
          13 13 4 2 -1.</_>
        <_>
          13 13 2 1 2.</_>
        <_>
          15 14 2 1 2.</_></rects>
      <tilted>0</tilted></_>
    <_>
      <rects>
        <_>
          13 13 2 9 -1.</_>
        <_>
          13 16 2 3 3.</_></rects>
      <tilted>0</tilted></_>
    <_>
      <rects>
        <_>
          13 15 1 3 -1.</_>
        <_>
          13 16 1 1 3.</_></rects>
      <tilted>0</tilted></_>
    <_>
      <rects>
        <_>
          14 5 1 3 -1.</_>
        <_>
          14 6 1 1 3.</_></rects>
      <tilted>0</tilted></_>
    <_>
      <rects>
        <_>
          14 5 6 12 -1.</_>
        <_>
          16 5 2 12 3.</_></rects>
      <tilted>0</tilted></_>
    <_>
      <rects>
        <_>
          14 5 7 2 -1.</_>
        <_>
          14 6 7 1 2.</_></rects>
      <tilted>0</tilted></_>
    <_>
      <rects>
        <_>
          14 13 3 1 -1.</_>
        <_>
          15 13 1 1 3.</_></rects>
      <tilted>0</tilted></_>
    <_>
      <rects>
        <_>
          15 7 6 9 -1.</_>
        <_>
          17 7 2 9 3.</_></rects>
      <tilted>0</tilted></_>
    <_>
      <rects>
        <_>
          15 9 1 6 -1.</_>
        <_>
          15 11 1 2 3.</_></rects>
      <tilted>0</tilted></_>
    <_>
      <rects>
        <_>
          15 9 2 4 -1.</_>
        <_>
          15 9 1 2 2.</_>
        <_>
          16 11 1 2 2.</_></rects>
      <tilted>0</tilted></_>
    <_>
      <rects>
        <_>
          15 15 3 1 -1.</_>
        <_>
          16 15 1 1 3.</_></rects>
      <tilted>0</tilted></_>
    <_>
      <rects>
        <_>
          16 9 8 8 -1.</_>
        <_>
          20 9 4 8 2.</_></rects>
      <tilted>0</tilted></_>
    <_>
      <rects>
        <_>
          16 11 1 3 -1.</_>
        <_>
          16 12 1 1 3.</_></rects>
      <tilted>0</tilted></_>
    <_>
      <rects>
        <_>
          16 14 3 1 -1.</_>
        <_>
          17 14 1 1 3.</_></rects>
      <tilted>0</tilted></_>
    <_>
      <rects>
        <_>
          17 6 2 6 -1.</_>
        <_>
          17 6 1 3 2.</_>
        <_>
          18 9 1 3 2.</_></rects>
      <tilted>0</tilted></_>
    <_>
      <rects>
        <_>
          17 9 2 12 -1.</_>
        <_>
          17 9 1 6 2.</_>
        <_>
          18 15 1 6 2.</_></rects>
      <tilted>0</tilted></_>
    <_>
      <rects>
        <_>
          17 15 3 6 -1.</_>
        <_>
          17 17 3 2 3.</_></rects>
      <tilted>0</tilted></_>
    <_>
      <rects>
        <_>
          17 16 6 3 -1.</_>
        <_>
          17 17 6 1 3.</_></rects>
      <tilted>0</tilted></_>
    <_>
      <rects>
        <_>
          18 5 2 3 -1.</_>
        <_>
          18 6 2 1 3.</_></rects>
      <tilted>0</tilted></_>
    <_>
      <rects>
        <_>
          18 9 1 6 -1.</_>
        <_>
          18 11 1 2 3.</_></rects>
      <tilted>0</tilted></_>
    <_>
      <rects>
        <_>
          18 10 4 14 -1.</_>
        <_>
          18 10 2 7 2.</_>
        <_>
          20 17 2 7 2.</_></rects>
      <tilted>0</tilted></_>
    <_>
      <rects>
        <_>
          18 12 3 9 -1.</_>
        <_>
          18 15 3 3 3.</_></rects>
      <tilted>0</tilted></_>
    <_>
      <rects>
        <_>
          18 16 6 3 -1.</_>
        <_>
          18 17 6 1 3.</_></rects>
      <tilted>0</tilted></_>
    <_>
      <rects>
        <_>
          19 4 2 10 -1.</_>
        <_>
          19 4 1 5 2.</_>
        <_>
          20 9 1 5 2.</_></rects>
      <tilted>0</tilted></_>
    <_>
      <rects>
        <_>
          19 7 3 8 -1.</_>
        <_>
          20 7 1 8 3.</_></rects>
      <tilted>0</tilted></_>
    <_>
      <rects>
        <_>
          19 9 2 5 -1.</_>
        <_>
          20 9 1 5 2.</_></rects>
      <tilted>0</tilted></_>
    <_>
      <rects>
        <_>
          20 1 4 2 -1.</_>
        <_>
          20 1 2 1 2.</_>
        <_>
          22 2 2 1 2.</_></rects>
      <tilted>0</tilted></_></features></cascade>
</opencv_storage>
