<?xml version="1.0"?>
<opencv_storage>
<stage5>
  <maxWeakCount>7</maxWeakCount>
  <stageThreshold>4.0860357880592346e-01</stageThreshold>
  <weakClassifiers>
    <_>
      <internalNodes>
        0 -1 95451 4.4197008013725281e-02</internalNodes>
      <leafValues>
        7.6785713434219360e-01 -7.5000000000000000e-01</leafValues></_>
    <_>
      <internalNodes>
        0 -1 118628 -9.4342418015003204e-04</internalNodes>
      <leafValues>
        9.6639120578765869e-01 -2.0353665947914124e-01</leafValues></_>
    <_>
      <internalNodes>
        0 -1 126352 -1.9895837176591158e-03</internalNodes>
      <leafValues>
        1. -2.5464040040969849e-01</leafValues></_>
    <_>
      <internalNodes>
        0 -1 154163 9.7314417362213135e-03</internalNodes>
      <leafValues>
        -2.5252887606620789e-01 9.5833551883697510e-01</leafValues></_>
    <_>
      <internalNodes>
        0 -1 58124 5.9202412376180291e-04</internalNodes>
      <leafValues>
        -2.8467592597007751e-01 9.7987776994705200e-01</leafValues></_>
    <_>
      <internalNodes>
        0 -1 149876 2.3584673181176186e-03</internalNodes>
      <leafValues>
        -2.6261419057846069e-01 1.</leafValues></_>
    <_>
      <internalNodes>
        0 -1 77372 -1.6437361482530832e-03</internalNodes>
      <leafValues>
        9.1739439964294434e-01 -3.5589793324470520e-01</leafValues></_></weakClassifiers></stage5>
</opencv_storage>
