<?xml version="1.0"?>
<opencv_storage>
<stage10>
  <maxWeakCount>7</maxWeakCount>
  <stageThreshold>1.3536387681961060e-01</stageThreshold>
  <weakClassifiers>
    <_>
      <internalNodes>
        0 -1 118362 -7.0624309591948986e-04</internalNodes>
      <leafValues>
        9.0303027629852295e-01 1.4666666090488434e-01</leafValues></_>
    <_>
      <internalNodes>
        0 -1 119598 1.5417427057400346e-03</internalNodes>
      <leafValues>
        -1.4967988431453705e-01 8.6137545108795166e-01</leafValues></_>
    <_>
      <internalNodes>
        0 -1 119432 5.1358472555875778e-03</internalNodes>
      <leafValues>
        -2.7119621634483337e-01 8.1913191080093384e-01</leafValues></_>
    <_>
      <internalNodes>
        0 -1 104749 -3.9428146556019783e-03</internalNodes>
      <leafValues>
        8.9394193887710571e-01 -3.0998113751411438e-01</leafValues></_>
    <_>
      <internalNodes>
        0 -1 4734 -6.4275085926055908e-02</internalNodes>
      <leafValues>
        -5.2868652343750000e-01 5.3377956151962280e-01</leafValues></_>
    <_>
      <internalNodes>
        0 -1 111179 -3.4057758748531342e-03</internalNodes>
      <leafValues>
        6.8660569190979004e-01 -4.7817426919937134e-01</leafValues></_>
    <_>
      <internalNodes>
        0 -1 112494 -6.2829430680721998e-04</internalNodes>
      <leafValues>
        7.7651137113571167e-01 -4.2637893557548523e-01</leafValues></_></weakClassifiers></stage10>
</opencv_storage>
