<?xml version="1.0"?>
<opencv_storage>
<stage13>
  <maxWeakCount>6</maxWeakCount>
  <stageThreshold>2.2793011367321014e-01</stageThreshold>
  <weakClassifiers>
    <_>
      <internalNodes>
        0 -1 104802 -1.8110960721969604e-02</internalNodes>
      <leafValues>
        -1. 7.3913043737411499e-01</leafValues></_>
    <_>
      <internalNodes>
        0 -1 127488 2.3721987381577492e-03</internalNodes>
      <leafValues>
        -9.3778811395168304e-02 1.</leafValues></_>
    <_>
      <internalNodes>
        0 -1 154937 6.7014631349593401e-04</internalNodes>
      <leafValues>
        6.2317514419555664e-01 -3.7002989649772644e-01</leafValues></_>
    <_>
      <internalNodes>
        0 -1 142161 2.4630655534565449e-03</internalNodes>
      <leafValues>
        -3.5610142350196838e-01 8.2275146245956421e-01</leafValues></_>
    <_>
      <internalNodes>
        0 -1 104396 -2.0874361507594585e-03</internalNodes>
      <leafValues>
        8.8505411148071289e-01 -2.7827194333076477e-01</leafValues></_>
    <_>
      <internalNodes>
        0 -1 19068 -1.1440597474575043e-02</internalNodes>
      <leafValues>
        6.5620601177215576e-01 -4.0622329711914062e-01</leafValues></_></weakClassifiers></stage13>
</opencv_storage>
