<?xml version="1.0"?>
<opencv_storage>
<stage2>
  <maxWeakCount>5</maxWeakCount>
  <stageThreshold>6.2509661912918091e-01</stageThreshold>
  <weakClassifiers>
    <_>
      <internalNodes>
        0 -1 85075 5.9293519705533981e-02</internalNodes>
      <leafValues>
        7.8571426868438721e-01 -1.</leafValues></_>
    <_>
      <internalNodes>
        0 -1 119598 5.7778524933382869e-04</internalNodes>
      <leafValues>
        -3.0470016598701477e-01 9.3397706747055054e-01</leafValues></_>
    <_>
      <internalNodes>
        0 -1 107666 -3.9885262958705425e-03</internalNodes>
      <leafValues>
        8.0364227294921875e-01 -4.6949476003646851e-01</leafValues></_>
    <_>
      <internalNodes>
        0 -1 86741 -2.8843202162533998e-03</internalNodes>
      <leafValues>
        1. -3.1923642754554749e-01</leafValues></_>
    <_>
      <internalNodes>
        0 -1 143355 -5.3744425531476736e-04</internalNodes>
      <leafValues>
        9.8819261789321899e-01 -3.0586355924606323e-01</leafValues></_></weakClassifiers></stage2>
</opencv_storage>
