<?xml version="1.0"?>
<opencv_storage>
<cascade>
  <stageType>BOOST</stageType>
  <featureType>HAAR</featureType>
  <height>24</height>
  <width>24</width>
  <stageParams>
    <boostType>GAB</boostType>
    <minHitRate>9.9500000476837158e-01</minHitRate>
    <maxFalseAlarm>8.9999997615814209e-01</maxFalseAlarm>
    <weightTrimRate>9.4999999999999996e-01</weightTrimRate>
    <maxDepth>1</maxDepth>
    <maxWeakCount>100</maxWeakCount></stageParams>
  <featureParams>
    <maxCatCount>0</maxCatCount>
    <featSize>1</featSize>
    <mode>BASIC</mode></featureParams>
  <stageNum>2</stageNum>
  <stages>
    <!-- stage 0 -->
    <_>
      <maxWeakCount>3</maxWeakCount>
      <stageThreshold>-7.6458817720413208e-01</stageThreshold>
      <weakClassifiers>
        <_>
          <internalNodes>
            0 -1 5 -1.4500871766358614e-03</internalNodes>
          <leafValues>
            3.4693878889083862e-01 -6.9642859697341919e-01</leafValues></_>
        <_>
          <internalNodes>
            0 -1 3 -6.2411790713667870e-03</internalNodes>
          <leafValues>
            3.6211371421813965e-01 -7.1797370910644531e-01</leafValues></_>
        <_>
          <internalNodes>
            0 -1 1 -1.1954421177506447e-02</internalNodes>
          <leafValues>
            7.7401155233383179e-01 -3.9355322718620300e-01</leafValues></_></weakClassifiers></_>
    <!-- stage 1 -->
    <_>
      <maxWeakCount>4</maxWeakCount>
      <stageThreshold>-1.1335250139236450e+00</stageThreshold>
      <weakClassifiers>
        <_>
          <internalNodes>
            0 -1 4 -2.9813647270202637e-03</internalNodes>
          <leafValues>
            2.7118644118309021e-01 -7.5490194559097290e-01</leafValues></_>
        <_>
          <internalNodes>
            0 -1 6 1.1558990925550461e-02</internalNodes>
          <leafValues>
            -3.9213204383850098e-01 7.2591489553451538e-01</leafValues></_>
        <_>
          <internalNodes>
            0 -1 0 5.3158188238739967e-03</internalNodes>
          <leafValues>
            -3.6142173409461975e-01 6.2630414962768555e-01</leafValues></_>
        <_>
          <internalNodes>
            0 -1 2 -1.4622658491134644e-03</internalNodes>
          <leafValues>
            3.9446529746055603e-01 -6.1279517412185669e-01</leafValues></_></weakClassifiers></_></stages>
  <features>
    <_>
      <rects>
        <_>
          3 7 3 7 -1.</_>
        <_>
          4 7 1 7 3.</_></rects>
      <tilted>0</tilted></_>
    <_>
      <rects>
        <_>
          4 6 4 14 -1.</_>
        <_>
          4 6 2 7 2.</_>
        <_>
          6 13 2 7 2.</_></rects>
      <tilted>0</tilted></_>
    <_>
      <rects>
        <_>
          4 11 15 2 -1.</_>
        <_>
          9 11 5 2 3.</_></rects>
      <tilted>0</tilted></_>
    <_>
      <rects>
        <_>
          7 8 5 15 -1.</_>
        <_>
          7 13 5 5 3.</_></rects>
      <tilted>0</tilted></_>
    <_>
      <rects>
        <_>
          12 9 1 6 -1.</_>
        <_>
          12 11 1 2 3.</_></rects>
      <tilted>0</tilted></_>
    <_>
      <rects>
        <_>
          12 12 2 2 -1.</_>
        <_>
          12 12 1 1 2.</_>
        <_>
          13 13 1 1 2.</_></rects>
      <tilted>0</tilted></_>
    <_>
      <rects>
        <_>
          16 3 4 12 -1.</_>
        <_>
          16 3 2 6 2.</_>
        <_>
          18 9 2 6 2.</_></rects>
      <tilted>0</tilted></_></features></cascade>
</opencv_storage>
