<?xml version="1.0"?>
<opencv_storage>
<cascade>
  <stageType>BOOST</stageType>
  <featureType>HAAR</featureType>
  <height>24</height>
  <width>24</width>
  <stageParams>
    <boostType>GAB</boostType>
    <minHitRate>9.9500000476837158e-01</minHitRate>
    <maxFalseAlarm>5.0000000000000000e-01</maxFalseAlarm>
    <weightTrimRate>9.4999999999999996e-01</weightTrimRate>
    <maxDepth>1</maxDepth>
    <maxWeakCount>100</maxWeakCount></stageParams>
  <featureParams>
    <maxCatCount>0</maxCatCount>
    <featSize>1</featSize>
    <mode>BASIC</mode></featureParams>
  <stageNum>20</stageNum>
  <stages>
    <!-- stage 0 -->
    <_>
      <maxWeakCount>3</maxWeakCount>
      <stageThreshold>1.0098574161529541e+00</stageThreshold>
      <weakClassifiers>
        <_>
          <internalNodes>
            0 -1 29 5.7833630591630936e-02</internalNodes>
          <leafValues>
            9.2233008146286011e-01 -8.3333331346511841e-01</leafValues></_>
        <_>
          <internalNodes>
            0 -1 43 8.2057956606149673e-03</internalNodes>
          <leafValues>
            8.4319072961807251e-01 -8.6920851469039917e-01</leafValues></_>
        <_>
          <internalNodes>
            0 -1 37 -4.4875417370349169e-04</internalNodes>
          <leafValues>
            1. -5.6281453371047974e-01</leafValues></_></weakClassifiers></_>
    <!-- stage 1 -->
    <_>
      <maxWeakCount>1</maxWeakCount>
      <stageThreshold>8.8679248094558716e-01</stageThreshold>
      <weakClassifiers>
        <_>
          <internalNodes>
            0 -1 33 1.5921384096145630e-01</internalNodes>
          <leafValues>
            8.8679248094558716e-01 -1.</leafValues></_></weakClassifiers></_>
    <!-- stage 2 -->
    <_>
      <maxWeakCount>3</maxWeakCount>
      <stageThreshold>1.0904083251953125e+00</stageThreshold>
      <weakClassifiers>
        <_>
          <internalNodes>
            0 -1 0 9.6243858337402344e-02</internalNodes>
          <leafValues>
            9.4059407711029053e-01 -7.1428573131561279e-01</leafValues></_>
        <_>
          <internalNodes>
            0 -1 44 -1.6448616981506348e-02</internalNodes>
          <leafValues>
            -8.5018581151962280e-01 8.2777696847915649e-01</leafValues></_>
        <_>
          <internalNodes>
            0 -1 27 -1.3679455732926726e-03</internalNodes>
          <leafValues>
            1. -6.1976450681686401e-01</leafValues></_></weakClassifiers></_>
    <!-- stage 3 -->
    <_>
      <maxWeakCount>1</maxWeakCount>
      <stageThreshold>9.0476191043853760e-01</stageThreshold>
      <weakClassifiers>
        <_>
          <internalNodes>
            0 -1 16 7.2531700134277344e-02</internalNodes>
          <leafValues>
            9.0476191043853760e-01 -1.</leafValues></_></weakClassifiers></_>
    <!-- stage 4 -->
    <_>
      <maxWeakCount>3</maxWeakCount>
      <stageThreshold>9.7733163833618164e-01</stageThreshold>
      <weakClassifiers>
        <_>
          <internalNodes>
            0 -1 13 1.0658764839172363e-01</internalNodes>
          <leafValues>
            9.2233008146286011e-01 -8.3333331346511841e-01</leafValues></_>
        <_>
          <internalNodes>
            0 -1 50 6.5570033621042967e-04</internalNodes>
          <leafValues>
            9.1269314289093018e-01 -5.7097238302230835e-01</leafValues></_>
        <_>
          <internalNodes>
            0 -1 10 -1.4989576302468777e-03</internalNodes>
          <leafValues>
            -5.2466017007827759e-01 8.9797180891036987e-01</leafValues></_></weakClassifiers></_>
    <!-- stage 5 -->
    <_>
      <maxWeakCount>1</maxWeakCount>
      <stageThreshold>8.6915886402130127e-01</stageThreshold>
      <weakClassifiers>
        <_>
          <internalNodes>
            0 -1 30 -6.1378329992294312e-02</internalNodes>
          <leafValues>
            -1. 8.6915886402130127e-01</leafValues></_></weakClassifiers></_>
    <!-- stage 6 -->
    <_>
      <maxWeakCount>3</maxWeakCount>
      <stageThreshold>1.2807750701904297e+00</stageThreshold>
      <weakClassifiers>
        <_>
          <internalNodes>
            0 -1 2 -3.5670483112335205e-01</internalNodes>
          <leafValues>
            -1. 8.5185188055038452e-01</leafValues></_>
        <_>
          <internalNodes>
            0 -1 27 -2.7161376783624291e-04</internalNodes>
          <leafValues>
            1. -5.7107681035995483e-01</leafValues></_>
        <_>
          <internalNodes>
            0 -1 46 -2.1150042302906513e-03</internalNodes>
          <leafValues>
            1. -4.9939584732055664e-01</leafValues></_></weakClassifiers></_>
    <!-- stage 7 -->
    <_>
      <maxWeakCount>2</maxWeakCount>
      <stageThreshold>4.6718460321426392e-01</stageThreshold>
      <weakClassifiers>
        <_>
          <internalNodes>
            0 -1 19 -8.5892267525196075e-02</internalNodes>
          <leafValues>
            -5.0000000000000000e-01 8.8349515199661255e-01</leafValues></_>
        <_>
          <internalNodes>
            0 -1 4 9.6099982038140297e-03</internalNodes>
          <leafValues>
            9.6718460321426392e-01 -3.8106498122215271e-01</leafValues></_></weakClassifiers></_>
    <!-- stage 8 -->
    <_>
      <maxWeakCount>4</maxWeakCount>
      <stageThreshold>8.0257731676101685e-01</stageThreshold>
      <weakClassifiers>
        <_>
          <internalNodes>
            0 -1 1 1.8732430040836334e-01</internalNodes>
          <leafValues>
            8.1818181276321411e-01 -1.</leafValues></_>
        <_>
          <internalNodes>
            0 -1 36 -6.8870419636368752e-04</internalNodes>
          <leafValues>
            1. -3.6309599876403809e-01</leafValues></_>
        <_>
          <internalNodes>
            0 -1 51 -1.7677550204098225e-03</internalNodes>
          <leafValues>
            1. -5.3907155990600586e-01</leafValues></_>
        <_>
          <internalNodes>
            0 -1 53 2.6502055115997791e-03</internalNodes>
          <leafValues>
            -4.7653293609619141e-01 1.</leafValues></_></weakClassifiers></_>
    <!-- stage 9 -->
    <_>
      <maxWeakCount>4</maxWeakCount>
      <stageThreshold>7.3779654502868652e-01</stageThreshold>
      <weakClassifiers>
        <_>
          <internalNodes>
            0 -1 35 -4.0927775204181671e-02</internalNodes>
          <leafValues>
            -5.5555558204650879e-01 8.4905660152435303e-01</leafValues></_>
        <_>
          <internalNodes>
            0 -1 24 8.9286472648382187e-03</internalNodes>
          <leafValues>
            8.2039052248001099e-01 -5.9787261486053467e-01</leafValues></_>
        <_>
          <internalNodes>
            0 -1 18 3.0216823797672987e-03</internalNodes>
          <leafValues>
            -5.1338744163513184e-01 1.</leafValues></_>
        <_>
          <internalNodes>
            0 -1 39 -1.2199874036014080e-03</internalNodes>
          <leafValues>
            1. -3.1436744332313538e-01</leafValues></_></weakClassifiers></_>
    <!-- stage 10 -->
    <_>
      <maxWeakCount>4</maxWeakCount>
      <stageThreshold>8.7876874208450317e-01</stageThreshold>
      <weakClassifiers>
        <_>
          <internalNodes>
            0 -1 3 8.3913952112197876e-02</internalNodes>
          <leafValues>
            8.3486241102218628e-01 -1.</leafValues></_>
        <_>
          <internalNodes>
            0 -1 45 -1.3561201049014926e-03</internalNodes>
          <leafValues>
            1. -4.7527912259101868e-01</leafValues></_>
        <_>
          <internalNodes>
            0 -1 31 -8.1165344454348087e-04</internalNodes>
          <leafValues>
            1. -4.3691313266754150e-01</leafValues></_>
        <_>
          <internalNodes>
            0 -1 22 -1.7787347314879298e-04</internalNodes>
          <leafValues>
            -4.8081451654434204e-01 1.</leafValues></_></weakClassifiers></_>
    <!-- stage 11 -->
    <_>
      <maxWeakCount>3</maxWeakCount>
      <stageThreshold>9.1073501110076904e-01</stageThreshold>
      <weakClassifiers>
        <_>
          <internalNodes>
            0 -1 5 -9.8747022449970245e-02</internalNodes>
          <leafValues>
            -1. 8.5185188055038452e-01</leafValues></_>
        <_>
          <internalNodes>
            0 -1 17 9.8993599414825439e-02</internalNodes>
          <leafValues>
            8.0018788576126099e-01 -9.4111680984497070e-01</leafValues></_>
        <_>
          <internalNodes>
            0 -1 31 -5.1019905367866158e-04</internalNodes>
          <leafValues>
            1. -6.3764852285385132e-01</leafValues></_></weakClassifiers></_>
    <!-- stage 12 -->
    <_>
      <maxWeakCount>3</maxWeakCount>
      <stageThreshold>1.0333226919174194e+00</stageThreshold>
      <weakClassifiers>
        <_>
          <internalNodes>
            0 -1 54 4.3221581727266312e-03</internalNodes>
          <leafValues>
            8.5185188055038452e-01 -1.</leafValues></_>
        <_>
          <internalNodes>
            0 -1 23 8.8348127901554108e-03</internalNodes>
          <leafValues>
            7.9458510875701904e-01 -7.8358227014541626e-01</leafValues></_>
        <_>
          <internalNodes>
            0 -1 52 -3.2517402432858944e-03</internalNodes>
          <leafValues>
            1. -6.1311429738998413e-01</leafValues></_></weakClassifiers></_>
    <!-- stage 13 -->
    <_>
      <maxWeakCount>4</maxWeakCount>
      <stageThreshold>6.6363614797592163e-01</stageThreshold>
      <weakClassifiers>
        <_>
          <internalNodes>
            0 -1 21 5.6361488997936249e-02</internalNodes>
          <leafValues>
            8.3486241102218628e-01 -1.</leafValues></_>
        <_>
          <internalNodes>
            0 -1 40 -7.1078874170780182e-03</internalNodes>
          <leafValues>
            -6.1894345283508301e-01 8.8856011629104614e-01</leafValues></_>
        <_>
          <internalNodes>
            0 -1 39 -1.2246657861396670e-03</internalNodes>
          <leafValues>
            1. -4.7375255823135376e-01</leafValues></_>
        <_>
          <internalNodes>
            0 -1 47 -2.5575727340765297e-04</internalNodes>
          <leafValues>
            9.2146980762481689e-01 -4.9949312210083008e-01</leafValues></_></weakClassifiers></_>
    <!-- stage 14 -->
    <_>
      <maxWeakCount>4</maxWeakCount>
      <stageThreshold>8.6303007602691650e-01</stageThreshold>
      <weakClassifiers>
        <_>
          <internalNodes>
            0 -1 14 -3.1104272603988647e-01</internalNodes>
          <leafValues>
            -1. 8.3486241102218628e-01</leafValues></_>
        <_>
          <internalNodes>
            0 -1 6 -4.8468820750713348e-03</internalNodes>
          <leafValues>
            -4.3110665678977966e-01 1.</leafValues></_>
        <_>
          <internalNodes>
            0 -1 32 7.0869480259716511e-04</internalNodes>
          <leafValues>
            -5.1818192005157471e-01 9.0363711118698120e-01</leafValues></_>
        <_>
          <internalNodes>
            0 -1 25 -3.8552400656044483e-04</internalNodes>
          <leafValues>
            1. -4.4436269998550415e-01</leafValues></_></weakClassifiers></_>
    <!-- stage 15 -->
    <_>
      <maxWeakCount>4</maxWeakCount>
      <stageThreshold>7.3252898454666138e-01</stageThreshold>
      <weakClassifiers>
        <_>
          <internalNodes>
            0 -1 56 -1.2149614049121737e-03</internalNodes>
          <leafValues>
            -1. 8.5185188055038452e-01</leafValues></_>
        <_>
          <internalNodes>
            0 -1 12 1.7796184401959181e-03</internalNodes>
          <leafValues>
            8.8246852159500122e-01 -5.2437394857406616e-01</leafValues></_>
        <_>
          <internalNodes>
            0 -1 38 9.8659773357212543e-04</internalNodes>
          <leafValues>
            -4.8814401030540466e-01 1.</leafValues></_>
        <_>
          <internalNodes>
            0 -1 26 -1.3196964282542467e-03</internalNodes>
          <leafValues>
            9.8050069808959961e-01 -5.1364737749099731e-01</leafValues></_></weakClassifiers></_>
    <!-- stage 16 -->
    <_>
      <maxWeakCount>3</maxWeakCount>
      <stageThreshold>5.7884228229522705e-01</stageThreshold>
      <weakClassifiers>
        <_>
          <internalNodes>
            0 -1 9 -2.8837352991104126e-01</internalNodes>
          <leafValues>
            -7.5000000000000000e-01 8.5046726465225220e-01</leafValues></_>
        <_>
          <internalNodes>
            0 -1 57 5.0194514915347099e-04</internalNodes>
          <leafValues>
            6.9811040163040161e-01 -7.4345874786376953e-01</leafValues></_>
        <_>
          <internalNodes>
            0 -1 48 -1.3481952482834458e-03</internalNodes>
          <leafValues>
            -7.7430456876754761e-01 6.3073188066482544e-01</leafValues></_></weakClassifiers></_>
    <!-- stage 17 -->
    <_>
      <maxWeakCount>3</maxWeakCount>
      <stageThreshold>6.5398645401000977e-01</stageThreshold>
      <weakClassifiers>
        <_>
          <internalNodes>
            0 -1 28 2.6036649942398071e-03</internalNodes>
          <leafValues>
            9.0196079015731812e-01 -5.3846156597137451e-01</leafValues></_>
        <_>
          <internalNodes>
            0 -1 15 2.7199774980545044e-01</internalNodes>
          <leafValues>
            6.7898249626159668e-01 -9.1991567611694336e-01</leafValues></_>
        <_>
          <internalNodes>
            0 -1 55 -4.5566074550151825e-04</internalNodes>
          <leafValues>
            -6.8513053655624390e-01 6.7194133996963501e-01</leafValues></_></weakClassifiers></_>
    <!-- stage 18 -->
    <_>
      <maxWeakCount>5</maxWeakCount>
      <stageThreshold>3.1762444972991943e-01</stageThreshold>
      <weakClassifiers>
        <_>
          <internalNodes>
            0 -1 7 -1.1486320197582245e-01</internalNodes>
          <leafValues>
            -1. 8.3486241102218628e-01</leafValues></_>
        <_>
          <internalNodes>
            0 -1 8 -1.2218387797474861e-02</internalNodes>
          <leafValues>
            -6.5038800239562988e-01 8.8971722126007080e-01</leafValues></_>
        <_>
          <internalNodes>
            0 -1 11 -2.6484113186597824e-03</internalNodes>
          <leafValues>
            1. -4.6391671895980835e-01</leafValues></_>
        <_>
          <internalNodes>
            0 -1 41 5.6578046496724710e-05</internalNodes>
          <leafValues>
            -4.0293321013450623e-01 9.1488361358642578e-01</leafValues></_>
        <_>
          <internalNodes>
            0 -1 34 8.4620295092463493e-03</internalNodes>
          <leafValues>
            -5.2006047964096069e-01 1.</leafValues></_></weakClassifiers></_>
    <!-- stage 19 -->
    <_>
      <maxWeakCount>4</maxWeakCount>
      <stageThreshold>-3.1702047586441040e-01</stageThreshold>
      <weakClassifiers>
        <_>
          <internalNodes>
            0 -1 49 -1.0012730490416288e-03</internalNodes>
          <leafValues>
            -2.8571429848670959e-01 8.8118809461593628e-01</leafValues></_>
        <_>
          <internalNodes>
            0 -1 20 3.0846693553030491e-03</internalNodes>
          <leafValues>
            8.2746148109436035e-01 -4.7564506530761719e-01</leafValues></_>
        <_>
          <internalNodes>
            0 -1 37 -8.2598684821277857e-04</internalNodes>
          <leafValues>
            1. -4.3456834554672241e-01</leafValues></_>
        <_>
          <internalNodes>
            0 -1 42 4.7465454554185271e-04</internalNodes>
          <leafValues>
            -4.2419934272766113e-01 1.</leafValues></_></weakClassifiers></_></stages>
  <features>
    <_>
      <rects>
        <_>
          0 0 12 11 -1.</_>
        <_>
          4 0 4 11 3.</_></rects>
      <tilted>0</tilted></_>
    <_>
      <rects>
        <_>
          0 0 15 17 -1.</_>
        <_>
          5 0 5 17 3.</_></rects>
      <tilted>0</tilted></_>
    <_>
      <rects>
        <_>
          0 4 24 13 -1.</_>
        <_>
          12 4 12 13 2.</_></rects>
      <tilted>0</tilted></_>
    <_>
      <rects>
        <_>
          0 13 21 9 -1.</_>
        <_>
          0 16 21 3 3.</_></rects>
      <tilted>0</tilted></_>
    <_>
      <rects>
        <_>
          0 20 18 3 -1.</_>
        <_>
          9 20 9 3 2.</_></rects>
      <tilted>0</tilted></_>
    <_>
      <rects>
        <_>
          1 3 4 20 -1.</_>
        <_>
          1 13 4 10 2.</_></rects>
      <tilted>0</tilted></_>
    <_>
      <rects>
        <_>
          1 7 10 5 -1.</_>
        <_>
          6 7 5 5 2.</_></rects>
      <tilted>0</tilted></_>
    <_>
      <rects>
        <_>
          1 10 16 10 -1.</_>
        <_>
          1 10 8 5 2.</_>
        <_>
          9 15 8 5 2.</_></rects>
      <tilted>0</tilted></_>
    <_>
      <rects>
        <_>
          2 19 12 4 -1.</_>
        <_>
          2 19 6 2 2.</_>
        <_>
          8 21 6 2 2.</_></rects>
      <tilted>0</tilted></_>
    <_>
      <rects>
        <_>
          3 1 18 20 -1.</_>
        <_>
          3 11 18 10 2.</_></rects>
      <tilted>0</tilted></_>
    <_>
      <rects>
        <_>
          3 3 9 1 -1.</_>
        <_>
          6 3 3 1 3.</_></rects>
      <tilted>0</tilted></_>
    <_>
      <rects>
        <_>
          3 11 18 5 -1.</_>
        <_>
          9 11 6 5 3.</_></rects>
      <tilted>0</tilted></_>
    <_>
      <rects>
        <_>
          4 0 4 3 -1.</_>
        <_>
          6 0 2 3 2.</_></rects>
      <tilted>0</tilted></_>
    <_>
      <rects>
        <_>
          4 0 15 14 -1.</_>
        <_>
          9 0 5 14 3.</_></rects>
      <tilted>0</tilted></_>
    <_>
      <rects>
        <_>
          4 2 16 20 -1.</_>
        <_>
          4 12 16 10 2.</_></rects>
      <tilted>0</tilted></_>
    <_>
      <rects>
        <_>
          4 8 20 16 -1.</_>
        <_>
          14 8 10 16 2.</_></rects>
      <tilted>0</tilted></_>
    <_>
      <rects>
        <_>
          6 0 6 22 -1.</_>
        <_>
          9 0 3 22 2.</_></rects>
      <tilted>0</tilted></_>
    <_>
      <rects>
        <_>
          6 2 12 16 -1.</_>
        <_>
          6 10 12 8 2.</_></rects>
      <tilted>0</tilted></_>
    <_>
      <rects>
        <_>
          6 11 8 4 -1.</_>
        <_>
          6 11 4 2 2.</_>
        <_>
          10 13 4 2 2.</_></rects>
      <tilted>0</tilted></_>
    <_>
      <rects>
        <_>
          6 11 15 11 -1.</_>
        <_>
          11 11 5 11 3.</_></rects>
      <tilted>0</tilted></_>
    <_>
      <rects>
        <_>
          6 20 12 1 -1.</_>
        <_>
          10 20 4 1 3.</_></rects>
      <tilted>0</tilted></_>
    <_>
      <rects>
        <_>
          8 8 12 7 -1.</_>
        <_>
          14 8 6 7 2.</_></rects>
      <tilted>0</tilted></_>
    <_>
      <rects>
        <_>
          8 8 14 14 -1.</_>
        <_>
          8 8 7 7 2.</_>
        <_>
          15 15 7 7 2.</_></rects>
      <tilted>0</tilted></_>
    <_>
      <rects>
        <_>
          8 10 10 1 -1.</_>
        <_>
          13 10 5 1 2.</_></rects>
      <tilted>0</tilted></_>
    <_>
      <rects>
        <_>
          8 20 12 1 -1.</_>
        <_>
          14 20 6 1 2.</_></rects>
      <tilted>0</tilted></_>
    <_>
      <rects>
        <_>
          9 3 1 6 -1.</_>
        <_>
          9 5 1 2 3.</_></rects>
      <tilted>0</tilted></_>
    <_>
      <rects>
        <_>
          9 11 3 2 -1.</_>
        <_>
          10 11 1 2 3.</_></rects>
      <tilted>0</tilted></_>
    <_>
      <rects>
        <_>
          10 9 3 4 -1.</_>
        <_>
          10 11 3 2 2.</_></rects>
      <tilted>0</tilted></_>
    <_>
      <rects>
        <_>
          10 17 2 5 -1.</_>
        <_>
          11 17 1 5 2.</_></rects>
      <tilted>0</tilted></_>
    <_>
      <rects>
        <_>
          11 0 6 23 -1.</_>
        <_>
          13 0 2 23 3.</_></rects>
      <tilted>0</tilted></_>
    <_>
      <rects>
        <_>
          11 9 13 9 -1.</_>
        <_>
          11 12 13 3 3.</_></rects>
      <tilted>0</tilted></_>
    <_>
      <rects>
        <_>
          11 12 3 1 -1.</_>
        <_>
          12 12 1 1 3.</_></rects>
      <tilted>0</tilted></_>
    <_>
      <rects>
        <_>
          11 12 4 1 -1.</_>
        <_>
          13 12 2 1 2.</_></rects>
      <tilted>0</tilted></_>
    <_>
      <rects>
        <_>
          12 0 12 22 -1.</_>
        <_>
          16 0 4 22 3.</_></rects>
      <tilted>0</tilted></_>
    <_>
      <rects>
        <_>
          12 9 12 2 -1.</_>
        <_>
          16 9 4 2 3.</_></rects>
      <tilted>0</tilted></_>
    <_>
      <rects>
        <_>
          12 9 8 11 -1.</_>
        <_>
          16 9 4 11 2.</_></rects>
      <tilted>0</tilted></_>
    <_>
      <rects>
        <_>
          12 10 4 6 -1.</_>
        <_>
          12 10 2 3 2.</_>
        <_>
          14 13 2 3 2.</_></rects>
      <tilted>0</tilted></_>
    <_>
      <rects>
        <_>
          12 11 1 3 -1.</_>
        <_>
          12 12 1 1 3.</_></rects>
      <tilted>0</tilted></_>
    <_>
      <rects>
        <_>
          12 11 1 4 -1.</_>
        <_>
          12 13 1 2 2.</_></rects>
      <tilted>0</tilted></_>
    <_>
      <rects>
        <_>
          12 12 2 2 -1.</_>
        <_>
          12 12 1 1 2.</_>
        <_>
          13 13 1 1 2.</_></rects>
      <tilted>0</tilted></_>
    <_>
      <rects>
        <_>
          13 7 9 10 -1.</_>
        <_>
          16 7 3 10 3.</_></rects>
      <tilted>0</tilted></_>
    <_>
      <rects>
        <_>
          13 9 2 4 -1.</_>
        <_>
          14 9 1 4 2.</_></rects>
      <tilted>0</tilted></_>
    <_>
      <rects>
        <_>
          15 7 2 4 -1.</_>
        <_>
          15 7 1 2 2.</_>
        <_>
          16 9 1 2 2.</_></rects>
      <tilted>0</tilted></_>
    <_>
      <rects>
        <_>
          15 15 2 8 -1.</_>
        <_>
          16 15 1 8 2.</_></rects>
      <tilted>0</tilted></_>
    <_>
      <rects>
        <_>
          16 18 6 5 -1.</_>
        <_>
          18 18 2 5 3.</_></rects>
      <tilted>0</tilted></_>
    <_>
      <rects>
        <_>
          17 1 6 14 -1.</_>
        <_>
          20 1 3 14 2.</_></rects>
      <tilted>0</tilted></_>
    <_>
      <rects>
        <_>
          17 3 6 8 -1.</_>
        <_>
          17 3 3 4 2.</_>
        <_>
          20 7 3 4 2.</_></rects>
      <tilted>0</tilted></_>
    <_>
      <rects>
        <_>
          17 7 4 9 -1.</_>
        <_>
          19 7 2 9 2.</_></rects>
      <tilted>0</tilted></_>
    <_>
      <rects>
        <_>
          19 1 5 2 -1.</_>
        <_>
          19 2 5 1 2.</_></rects>
      <tilted>0</tilted></_>
    <_>
      <rects>
        <_>
          19 2 2 2 -1.</_>
        <_>
          19 3 2 1 2.</_></rects>
      <tilted>0</tilted></_>
    <_>
      <rects>
        <_>
          19 3 4 1 -1.</_>
        <_>
          21 3 2 1 2.</_></rects>
      <tilted>0</tilted></_>
    <_>
      <rects>
        <_>
          19 7 3 15 -1.</_>
        <_>
          20 7 1 15 3.</_></rects>
      <tilted>0</tilted></_>
    <_>
      <rects>
        <_>
          19 8 2 13 -1.</_>
        <_>
          20 8 1 13 2.</_></rects>
      <tilted>0</tilted></_>
    <_>
      <rects>
        <_>
          19 10 4 12 -1.</_>
        <_>
          19 10 2 6 2.</_>
        <_>
          21 16 2 6 2.</_></rects>
      <tilted>0</tilted></_>
    <_>
      <rects>
        <_>
          19 22 5 2 -1.</_>
        <_>
          19 23 5 1 2.</_></rects>
      <tilted>0</tilted></_>
    <_>
      <rects>
        <_>
          21 0 1 3 -1.</_>
        <_>
          21 1 1 1 3.</_></rects>
      <tilted>0</tilted></_>
    <_>
      <rects>
        <_>
          21 23 3 1 -1.</_>
        <_>
          22 23 1 1 3.</_></rects>
      <tilted>0</tilted></_>
    <_>
      <rects>
        <_>
          23 2 1 2 -1.</_>
        <_>
          23 3 1 1 2.</_></rects>
      <tilted>0</tilted></_></features></cascade>
</opencv_storage>
