<?xml version="1.0"?>
<opencv_storage>
<stage18>
  <maxWeakCount>5</maxWeakCount>
  <stageThreshold>3.1762444972991943e-01</stageThreshold>
  <weakClassifiers>
    <_>
      <internalNodes>
        0 -1 21898 -1.1486320197582245e-01</internalNodes>
      <leafValues>
        -1. 8.3486241102218628e-01</leafValues></_>
    <_>
      <internalNodes>
        0 -1 37529 -1.2218387797474861e-02</internalNodes>
      <leafValues>
        -6.5038800239562988e-01 8.8971722126007080e-01</leafValues></_>
    <_>
      <internalNodes>
        0 -1 46313 -2.6484113186597824e-03</internalNodes>
      <leafValues>
        1. -4.6391671895980835e-01</leafValues></_>
    <_>
      <internalNodes>
        0 -1 131530 5.6578046496724710e-05</internalNodes>
      <leafValues>
        -4.0293321013450623e-01 9.1488361358642578e-01</leafValues></_>
    <_>
      <internalNodes>
        0 -1 125566 8.4620295092463493e-03</internalNodes>
      <leafValues>
        -5.2006047964096069e-01 1.</leafValues></_></weakClassifiers></stage18>
</opencv_storage>
