<?xml version="1.0"?>
<opencv_storage>
<stage6>
  <maxWeakCount>6</maxWeakCount>
  <stageThreshold>-7.2382646799087524e-01</stageThreshold>
  <weakClassifiers>
    <_>
      <internalNodes>
        0 -1 96049 -3.8010748103260994e-03</internalNodes>
      <leafValues>
        9.2857140302658081e-01 -4.6323528885841370e-01</leafValues></_>
    <_>
      <internalNodes>
        0 -1 76451 -8.1792417913675308e-03</internalNodes>
      <leafValues>
        4.1007834672927856e-01 -4.8857748508453369e-01</leafValues></_>
    <_>
      <internalNodes>
        0 -1 74358 -1.5196783933788538e-03</internalNodes>
      <leafValues>
        4.4120121002197266e-01 -3.7195047736167908e-01</leafValues></_>
    <_>
      <internalNodes>
        0 -1 146642 -2.7117214631289244e-03</internalNodes>
      <leafValues>
        5.7164084911346436e-01 -2.8539511561393738e-01</leafValues></_>
    <_>
      <internalNodes>
        0 -1 102708 6.0411337763071060e-03</internalNodes>
      <leafValues>
        -1.7055401206016541e-01 8.9717775583267212e-01</leafValues></_>
    <_>
      <internalNodes>
        0 -1 106881 5.0712632946670055e-04</internalNodes>
      <leafValues>
        2.9206803441047668e-01 -6.1430180072784424e-01</leafValues></_></weakClassifiers></stage6>
</opencv_storage>
