<?xml version="1.0"?>
<opencv_storage>
<stage13>
  <maxWeakCount>6</maxWeakCount>
  <stageThreshold>3.6207842826843262e-01</stageThreshold>
  <weakClassifiers>
    <_>
      <internalNodes>
        0 -1 8506 9.4887442886829376e-02</internalNodes>
      <leafValues>
        8.4615385532379150e-01 -4.5454546809196472e-01</leafValues></_>
    <_>
      <internalNodes>
        0 -1 156458 -4.0242960676550865e-03</internalNodes>
      <leafValues>
        9.0816491842269897e-01 -3.5401273518800735e-02</leafValues></_>
    <_>
      <internalNodes>
        0 -1 86746 -2.2612344473600388e-03</internalNodes>
      <leafValues>
        9.0974926948547363e-01 -2.1948960423469543e-01</leafValues></_>
    <_>
      <internalNodes>
        0 -1 119576 3.7750103510916233e-03</internalNodes>
      <leafValues>
        -3.4486201405525208e-01 8.4490901231765747e-01</leafValues></_>
    <_>
      <internalNodes>
        0 -1 154146 3.8538435474038124e-03</internalNodes>
      <leafValues>
        -2.6307621598243713e-01 8.2932180166244507e-01</leafValues></_>
    <_>
      <internalNodes>
        0 -1 13177 1.2411482748575509e-04</internalNodes>
      <leafValues>
        5.5021411180496216e-01 -5.0723981857299805e-01</leafValues></_></weakClassifiers></stage13>
</opencv_storage>
