<?xml version="1.0"?>
<opencv_storage>
<stage2>
  <maxWeakCount>5</maxWeakCount>
  <stageThreshold>4.0349277853965759e-01</stageThreshold>
  <weakClassifiers>
    <_>
      <internalNodes>
        0 -1 76102 8.7498635053634644e-02</internalNodes>
      <leafValues>
        8.5185188055038452e-01 -1.</leafValues></_>
    <_>
      <internalNodes>
        0 -1 32719 -1.7300611361861229e-02</internalNodes>
      <leafValues>
        -5.9966570138931274e-01 7.2695440053939819e-01</leafValues></_>
    <_>
      <internalNodes>
        0 -1 119305 -1.1204821057617664e-03</internalNodes>
      <leafValues>
        8.5994398593902588e-01 -5.0318330526351929e-01</leafValues></_>
    <_>
      <internalNodes>
        0 -1 125755 -1.6206534346565604e-03</internalNodes>
      <leafValues>
        1. -3.0085712671279907e-01</leafValues></_>
    <_>
      <internalNodes>
        0 -1 126351 1.2409193441271782e-03</internalNodes>
      <leafValues>
        -3.4551009535789490e-01 1.</leafValues></_></weakClassifiers></stage2>
</opencv_storage>
