<?xml version="1.0"?>
<opencv_storage>
<stage10>
  <maxWeakCount>6</maxWeakCount>
  <stageThreshold>1.6748277842998505e-01</stageThreshold>
  <weakClassifiers>
    <_>
      <internalNodes>
        0 -1 72184 -2.5624978542327881e-01</internalNodes>
      <leafValues>
        -1. 8.2153844833374023e-01</leafValues></_>
    <_>
      <internalNodes>
        0 -1 76833 1.3217199593782425e-03</internalNodes>
      <leafValues>
        -6.9388076663017273e-02 9.4095993041992188e-01</leafValues></_>
    <_>
      <internalNodes>
        0 -1 102387 4.1484814137220383e-03</internalNodes>
      <leafValues>
        -3.1008648872375488e-01 8.5225963592529297e-01</leafValues></_>
    <_>
      <internalNodes>
        0 -1 136610 -1.3267432339489460e-02</internalNodes>
      <leafValues>
        -5.3696441650390625e-01 5.4980587959289551e-01</leafValues></_>
    <_>
      <internalNodes>
        0 -1 140447 2.6266514323651791e-03</internalNodes>
      <leafValues>
        -3.9130058884620667e-01 7.6564759016036987e-01</leafValues></_>
    <_>
      <internalNodes>
        0 -1 56709 1.6482756473124027e-03</internalNodes>
      <leafValues>
        -3.5666415095329285e-01 7.8167802095413208e-01</leafValues></_></weakClassifiers></stage10>
</opencv_storage>
