<?xml version="1.0"?>
<opencv_storage>
<cascade>
  <stageType>BOOST</stageType>
  <featureType>HAAR</featureType>
  <height>24</height>
  <width>24</width>
  <stageParams>
    <boostType>GAB</boostType>
    <minHitRate>9.9500000476837158e-01</minHitRate>
    <maxFalseAlarm>5.0000000000000000e-01</maxFalseAlarm>
    <weightTrimRate>9.4999999999999996e-01</weightTrimRate>
    <maxDepth>1</maxDepth>
    <maxWeakCount>100</maxWeakCount></stageParams>
  <featureParams>
    <maxCatCount>0</maxCatCount>
    <featSize>1</featSize>
    <mode>BASIC</mode></featureParams>
  <stageNum>11</stageNum>
  <stages>
    <!-- stage 0 -->
    <_>
      <maxWeakCount>6</maxWeakCount>
      <stageThreshold>-9.6234929561614990e-01</stageThreshold>
      <weakClassifiers>
        <_>
          <internalNodes>
            0 -1 49 -1.4500871766358614e-03</internalNodes>
          <leafValues>
            3.4693878889083862e-01 -6.9642859697341919e-01</leafValues></_>
        <_>
          <internalNodes>
            0 -1 27 -6.2411790713667870e-03</internalNodes>
          <leafValues>
            3.6211371421813965e-01 -7.1797370910644531e-01</leafValues></_>
        <_>
          <internalNodes>
            0 -1 17 -1.1954421177506447e-02</internalNodes>
          <leafValues>
            7.7401155233383179e-01 -3.9355322718620300e-01</leafValues></_>
        <_>
          <internalNodes>
            0 -1 63 -7.8893499448895454e-03</internalNodes>
          <leafValues>
            6.6772252321243286e-01 -4.0646886825561523e-01</leafValues></_>
        <_>
          <internalNodes>
            0 -1 34 -4.3871230445802212e-03</internalNodes>
          <leafValues>
            6.9225305318832397e-01 -3.9753547310829163e-01</leafValues></_>
        <_>
          <internalNodes>
            0 -1 46 -3.5108381416648626e-03</internalNodes>
          <leafValues>
            6.0624325275421143e-01 -4.6373158693313599e-01</leafValues></_></weakClassifiers></_>
    <!-- stage 1 -->
    <_>
      <maxWeakCount>5</maxWeakCount>
      <stageThreshold>-7.1048611402511597e-01</stageThreshold>
      <weakClassifiers>
        <_>
          <internalNodes>
            0 -1 7 -4.9001805484294891e-02</internalNodes>
          <leafValues>
            6.4444446563720703e-01 -5.4512637853622437e-01</leafValues></_>
        <_>
          <internalNodes>
            0 -1 60 -5.4622739553451538e-03</internalNodes>
          <leafValues>
            4.8972451686859131e-01 -4.7556218504905701e-01</leafValues></_>
        <_>
          <internalNodes>
            0 -1 45 5.4522510617971420e-04</internalNodes>
          <leafValues>
            -6.1165863275527954e-01 3.5822784900665283e-01</leafValues></_>
        <_>
          <internalNodes>
            0 -1 23 8.7182121351361275e-03</internalNodes>
          <leafValues>
            -3.1010171771049500e-01 8.3173775672912598e-01</leafValues></_>
        <_>
          <internalNodes>
            0 -1 0 -3.4307417809031904e-04</internalNodes>
          <leafValues>
            -7.0321041345596313e-01 3.2653906941413879e-01</leafValues></_></weakClassifiers></_>
    <!-- stage 2 -->
    <_>
      <maxWeakCount>6</maxWeakCount>
      <stageThreshold>-1.4223697185516357e+00</stageThreshold>
      <weakClassifiers>
        <_>
          <internalNodes>
            0 -1 3 9.4508394598960876e-02</internalNodes>
          <leafValues>
            -5.3736656904220581e-01 7.0731705427169800e-01</leafValues></_>
        <_>
          <internalNodes>
            0 -1 5 -2.6406291872262955e-02</internalNodes>
          <leafValues>
            4.1424447298049927e-01 -4.6348851919174194e-01</leafValues></_>
        <_>
          <internalNodes>
            0 -1 10 4.3432076927274466e-04</internalNodes>
          <leafValues>
            2.6257449388504028e-01 -7.0457202196121216e-01</leafValues></_>
        <_>
          <internalNodes>
            0 -1 43 -4.6995392767712474e-04</internalNodes>
          <leafValues>
            2.6898276805877686e-01 -6.6321986913681030e-01</leafValues></_>
        <_>
          <internalNodes>
            0 -1 26 -1.5318868681788445e-02</internalNodes>
          <leafValues>
            7.5091010332107544e-01 -2.7833285927772522e-01</leafValues></_>
        <_>
          <internalNodes>
            0 -1 2 8.1024866085499525e-04</internalNodes>
          <leafValues>
            2.5746360421180725e-01 -8.5561645030975342e-01</leafValues></_></weakClassifiers></_>
    <!-- stage 3 -->
    <_>
      <maxWeakCount>7</maxWeakCount>
      <stageThreshold>-1.4002925157546997e+00</stageThreshold>
      <weakClassifiers>
        <_>
          <internalNodes>
            0 -1 12 9.2919524759054184e-03</internalNodes>
          <leafValues>
            -5.6204378604888916e-01 6.6666668653488159e-01</leafValues></_>
        <_>
          <internalNodes>
            0 -1 41 2.1007859613746405e-03</internalNodes>
          <leafValues>
            -3.8510274887084961e-01 5.6155329942703247e-01</leafValues></_>
        <_>
          <internalNodes>
            0 -1 1 1.5892717055976391e-03</internalNodes>
          <leafValues>
            2.9155871272087097e-01 -7.7045834064483643e-01</leafValues></_>
        <_>
          <internalNodes>
            0 -1 4 -7.8896544873714447e-03</internalNodes>
          <leafValues>
            8.1991869211196899e-01 -2.6560539007186890e-01</leafValues></_>
        <_>
          <internalNodes>
            0 -1 30 -2.1164424717426300e-02</internalNodes>
          <leafValues>
            4.6591705083847046e-01 -4.4129613041877747e-01</leafValues></_>
        <_>
          <internalNodes>
            0 -1 29 -3.3890963532030582e-03</internalNodes>
          <leafValues>
            6.1413353681564331e-01 -3.3314672112464905e-01</leafValues></_>
        <_>
          <internalNodes>
            0 -1 16 -7.5089402496814728e-02</internalNodes>
          <leafValues>
            -8.2100886106491089e-01 2.9534357786178589e-01</leafValues></_></weakClassifiers></_>
    <!-- stage 4 -->
    <_>
      <maxWeakCount>6</maxWeakCount>
      <stageThreshold>-1.1209409236907959e+00</stageThreshold>
      <weakClassifiers>
        <_>
          <internalNodes>
            0 -1 44 2.7709193527698517e-03</internalNodes>
          <leafValues>
            -5.6617647409439087e-01 6.3999998569488525e-01</leafValues></_>
        <_>
          <internalNodes>
            0 -1 35 9.8777264356613159e-03</internalNodes>
          <leafValues>
            2.3702290654182434e-01 -7.4238997697830200e-01</leafValues></_>
        <_>
          <internalNodes>
            0 -1 48 2.6937432121485472e-03</internalNodes>
          <leafValues>
            -3.7456822395324707e-01 5.0969821214675903e-01</leafValues></_>
        <_>
          <internalNodes>
            0 -1 36 -4.8580477014183998e-03</internalNodes>
          <leafValues>
            5.7863789796829224e-01 -3.8308981060981750e-01</leafValues></_>
        <_>
          <internalNodes>
            0 -1 52 4.0394044481217861e-03</internalNodes>
          <leafValues>
            3.0999881029129028e-01 -7.5047647953033447e-01</leafValues></_>
        <_>
          <internalNodes>
            0 -1 31 4.6868622303009033e-04</internalNodes>
          <leafValues>
            -5.7089161872863770e-01 3.3147361874580383e-01</leafValues></_></weakClassifiers></_>
    <!-- stage 5 -->
    <_>
      <maxWeakCount>5</maxWeakCount>
      <stageThreshold>-7.7090883255004883e-01</stageThreshold>
      <weakClassifiers>
        <_>
          <internalNodes>
            0 -1 25 3.2117837108671665e-03</internalNodes>
          <leafValues>
            -5.7509160041809082e-01 7.1428573131561279e-01</leafValues></_>
        <_>
          <internalNodes>
            0 -1 50 1.4393064193427563e-03</internalNodes>
          <leafValues>
            -3.2244819402694702e-01 7.7631831169128418e-01</leafValues></_>
        <_>
          <internalNodes>
            0 -1 62 2.4074232205748558e-03</internalNodes>
          <leafValues>
            -2.7127555012702942e-01 8.2186830043792725e-01</leafValues></_>
        <_>
          <internalNodes>
            0 -1 28 1.0292753577232361e-03</internalNodes>
          <leafValues>
            -3.4026071429252625e-01 6.7878443002700806e-01</leafValues></_>
        <_>
          <internalNodes>
            0 -1 39 -1.4341378118842840e-03</internalNodes>
          <leafValues>
            7.6872795820236206e-01 -2.8087797760963440e-01</leafValues></_></weakClassifiers></_>
    <!-- stage 6 -->
    <_>
      <maxWeakCount>6</maxWeakCount>
      <stageThreshold>-7.8148597478866577e-01</stageThreshold>
      <weakClassifiers>
        <_>
          <internalNodes>
            0 -1 20 2.5271382182836533e-03</internalNodes>
          <leafValues>
            -5.2249133586883545e-01 8.7878787517547607e-01</leafValues></_>
        <_>
          <internalNodes>
            0 -1 47 8.0162187805399299e-04</internalNodes>
          <leafValues>
            -6.3942217826843262e-01 4.5222353935241699e-01</leafValues></_>
        <_>
          <internalNodes>
            0 -1 13 3.6733769811689854e-03</internalNodes>
          <leafValues>
            -3.3888313174247742e-01 7.4784839153289795e-01</leafValues></_>
        <_>
          <internalNodes>
            0 -1 37 -3.9414584171026945e-04</internalNodes>
          <leafValues>
            3.6423867940902710e-01 -7.2767949104309082e-01</leafValues></_>
        <_>
          <internalNodes>
            0 -1 65 -2.3550754413008690e-03</internalNodes>
          <leafValues>
            6.4332377910614014e-01 -3.7699779868125916e-01</leafValues></_>
        <_>
          <internalNodes>
            0 -1 61 -1.3193350750952959e-03</internalNodes>
          <leafValues>
            7.3206979036331177e-01 -2.7020302414894104e-01</leafValues></_></weakClassifiers></_>
    <!-- stage 7 -->
    <_>
      <maxWeakCount>6</maxWeakCount>
      <stageThreshold>-4.8801082372665405e-01</stageThreshold>
      <weakClassifiers>
        <_>
          <internalNodes>
            0 -1 54 -4.4755046255886555e-03</internalNodes>
          <leafValues>
            6.3157892227172852e-01 -5.1408451795578003e-01</leafValues></_>
        <_>
          <internalNodes>
            0 -1 57 -3.0077076517045498e-03</internalNodes>
          <leafValues>
            7.0639419555664062e-01 -2.4965293705463409e-01</leafValues></_>
        <_>
          <internalNodes>
            0 -1 42 5.1571875810623169e-03</internalNodes>
          <leafValues>
            2.2094900906085968e-01 -8.1689822673797607e-01</leafValues></_>
        <_>
          <internalNodes>
            0 -1 9 5.3614214994013309e-04</internalNodes>
          <leafValues>
            1.5682116150856018e-01 -8.9493829011917114e-01</leafValues></_>
        <_>
          <internalNodes>
            0 -1 18 6.7939059808850288e-03</internalNodes>
          <leafValues>
            -2.2025245428085327e-01 9.0809065103530884e-01</leafValues></_>
        <_>
          <internalNodes>
            0 -1 15 -6.8771084770560265e-03</internalNodes>
          <leafValues>
            -9.1278934478759766e-01 2.1392117440700531e-01</leafValues></_></weakClassifiers></_>
    <!-- stage 8 -->
    <_>
      <maxWeakCount>6</maxWeakCount>
      <stageThreshold>-8.6369752883911133e-01</stageThreshold>
      <weakClassifiers>
        <_>
          <internalNodes>
            0 -1 44 1.6988032730296254e-03</internalNodes>
          <leafValues>
            -6.1373388767242432e-01 2.3595505952835083e-01</leafValues></_>
        <_>
          <internalNodes>
            0 -1 11 -3.8921356201171875e-02</internalNodes>
          <leafValues>
            5.7868427038192749e-01 -3.6965322494506836e-01</leafValues></_>
        <_>
          <internalNodes>
            0 -1 19 -1.9524119561538100e-03</internalNodes>
          <leafValues>
            6.5761423110961914e-01 -2.6597774028778076e-01</leafValues></_>
        <_>
          <internalNodes>
            0 -1 53 -5.0362553447484970e-03</internalNodes>
          <leafValues>
            7.9874056577682495e-01 -1.8699142336845398e-01</leafValues></_>
        <_>
          <internalNodes>
            0 -1 40 -1.8871687352657318e-02</internalNodes>
          <leafValues>
            -8.7296396493911743e-01 2.3970091342926025e-01</leafValues></_>
        <_>
          <internalNodes>
            0 -1 14 -2.4019507691264153e-02</internalNodes>
          <leafValues>
            4.6724086999893188e-01 -3.5240381956100464e-01</leafValues></_></weakClassifiers></_>
    <!-- stage 9 -->
    <_>
      <maxWeakCount>7</maxWeakCount>
      <stageThreshold>-9.0238159894943237e-01</stageThreshold>
      <weakClassifiers>
        <_>
          <internalNodes>
            0 -1 33 2.8476801235228777e-03</internalNodes>
          <leafValues>
            -7.1038253605365753e-02 -7.8417265415191650e-01</leafValues></_>
        <_>
          <internalNodes>
            0 -1 64 3.4215000923722982e-03</internalNodes>
          <leafValues>
            -3.6222669482231140e-01 4.1447976231575012e-01</leafValues></_>
        <_>
          <internalNodes>
            0 -1 56 -1.1362687218934298e-03</internalNodes>
          <leafValues>
            6.3174307346343994e-01 -2.5760608911514282e-01</leafValues></_>
        <_>
          <internalNodes>
            0 -1 51 3.3911839127540588e-03</internalNodes>
          <leafValues>
            -1.9208240509033203e-01 8.6882579326629639e-01</leafValues></_>
        <_>
          <internalNodes>
            0 -1 38 1.4821821823716164e-03</internalNodes>
          <leafValues>
            -2.2676238417625427e-01 5.8111095428466797e-01</leafValues></_>
        <_>
          <internalNodes>
            0 -1 55 1.5699425712227821e-03</internalNodes>
          <leafValues>
            -2.4668447673320770e-01 6.9274586439132690e-01</leafValues></_>
        <_>
          <internalNodes>
            0 -1 22 -1.7288651317358017e-02</internalNodes>
          <leafValues>
            4.5401868224143982e-01 -4.0326124429702759e-01</leafValues></_></weakClassifiers></_>
    <!-- stage 10 -->
    <_>
      <maxWeakCount>8</maxWeakCount>
      <stageThreshold>-9.4752824306488037e-01</stageThreshold>
      <weakClassifiers>
        <_>
          <internalNodes>
            0 -1 32 -4.8762401565909386e-03</internalNodes>
          <leafValues>
            2.3255813866853714e-02 -6.4766842126846313e-01</leafValues></_>
        <_>
          <internalNodes>
            0 -1 59 -3.2013747841119766e-03</internalNodes>
          <leafValues>
            3.5736337304115295e-01 -3.7990802526473999e-01</leafValues></_>
        <_>
          <internalNodes>
            0 -1 8 1.1122192954644561e-03</internalNodes>
          <leafValues>
            3.1345438957214355e-01 -4.3962705135345459e-01</leafValues></_>
        <_>
          <internalNodes>
            0 -1 58 -6.0405991971492767e-03</internalNodes>
          <leafValues>
            7.4736851453781128e-01 -1.6927362978458405e-01</leafValues></_>
        <_>
          <internalNodes>
            0 -1 24 -1.3601291924715042e-02</internalNodes>
          <leafValues>
            4.4181197881698608e-01 -3.2623296976089478e-01</leafValues></_>
        <_>
          <internalNodes>
            0 -1 66 2.0280727185308933e-03</internalNodes>
          <leafValues>
            2.7298533916473389e-01 -6.0228836536407471e-01</leafValues></_>
        <_>
          <internalNodes>
            0 -1 6 3.1882170587778091e-03</internalNodes>
          <leafValues>
            -3.2479286193847656e-01 4.4989117980003357e-01</leafValues></_>
        <_>
          <internalNodes>
            0 -1 21 3.8104504346847534e-02</internalNodes>
          <leafValues>
            -2.3397749662399292e-01 7.0803040266036987e-01</leafValues></_></weakClassifiers></_></stages>
  <features>
    <_>
      <rects>
        <_>
          0 2 3 1 -1.</_>
        <_>
          1 2 1 1 3.</_></rects>
      <tilted>0</tilted></_>
    <_>
      <rects>
        <_>
          0 4 2 3 -1.</_>
        <_>
          0 5 2 1 3.</_></rects>
      <tilted>0</tilted></_>
    <_>
      <rects>
        <_>
          0 5 1 2 -1.</_>
        <_>
          0 6 1 1 2.</_></rects>
      <tilted>0</tilted></_>
    <_>
      <rects>
        <_>
          0 5 15 19 -1.</_>
        <_>
          5 5 5 19 3.</_></rects>
      <tilted>0</tilted></_>
    <_>
      <rects>
        <_>
          0 7 2 11 -1.</_>
        <_>
          1 7 1 11 2.</_></rects>
      <tilted>0</tilted></_>
    <_>
      <rects>
        <_>
          0 13 10 9 -1.</_>
        <_>
          5 13 5 9 2.</_></rects>
      <tilted>0</tilted></_>
    <_>
      <rects>
        <_>
          0 15 4 8 -1.</_>
        <_>
          0 15 2 4 2.</_>
        <_>
          2 19 2 4 2.</_></rects>
      <tilted>0</tilted></_>
    <_>
      <rects>
        <_>
          0 16 12 6 -1.</_>
        <_>
          6 16 6 6 2.</_></rects>
      <tilted>0</tilted></_>
    <_>
      <rects>
        <_>
          0 21 10 2 -1.</_>
        <_>
          0 21 5 1 2.</_>
        <_>
          5 22 5 1 2.</_></rects>
      <tilted>0</tilted></_>
    <_>
      <rects>
        <_>
          1 1 2 2 -1.</_>
        <_>
          1 1 1 1 2.</_>
        <_>
          2 2 1 1 2.</_></rects>
      <tilted>0</tilted></_>
    <_>
      <rects>
        <_>
          1 4 2 2 -1.</_>
        <_>
          1 4 1 1 2.</_>
        <_>
          2 5 1 1 2.</_></rects>
      <tilted>0</tilted></_>
    <_>
      <rects>
        <_>
          2 2 9 14 -1.</_>
        <_>
          2 9 9 7 2.</_></rects>
      <tilted>0</tilted></_>
    <_>
      <rects>
        <_>
          3 9 3 5 -1.</_>
        <_>
          4 9 1 5 3.</_></rects>
      <tilted>0</tilted></_>
    <_>
      <rects>
        <_>
          3 11 3 2 -1.</_>
        <_>
          4 11 1 2 3.</_></rects>
      <tilted>0</tilted></_>
    <_>
      <rects>
        <_>
          3 12 8 10 -1.</_>
        <_>
          7 12 4 10 2.</_></rects>
      <tilted>0</tilted></_>
    <_>
      <rects>
        <_>
          3 19 10 3 -1.</_>
        <_>
          3 20 10 1 3.</_></rects>
      <tilted>0</tilted></_>
    <_>
      <rects>
        <_>
          4 5 13 12 -1.</_>
        <_>
          4 11 13 6 2.</_></rects>
      <tilted>0</tilted></_>
    <_>
      <rects>
        <_>
          4 6 4 14 -1.</_>
        <_>
          4 6 2 7 2.</_>
        <_>
          6 13 2 7 2.</_></rects>
      <tilted>0</tilted></_>
    <_>
      <rects>
        <_>
          4 11 4 2 -1.</_>
        <_>
          4 11 2 1 2.</_>
        <_>
          6 12 2 1 2.</_></rects>
      <tilted>0</tilted></_>
    <_>
      <rects>
        <_>
          4 13 3 1 -1.</_>
        <_>
          5 13 1 1 3.</_></rects>
      <tilted>0</tilted></_>
    <_>
      <rects>
        <_>
          5 10 2 2 -1.</_>
        <_>
          5 10 1 1 2.</_>
        <_>
          6 11 1 1 2.</_></rects>
      <tilted>0</tilted></_>
    <_>
      <rects>
        <_>
          6 4 7 9 -1.</_>
        <_>
          6 7 7 3 3.</_></rects>
      <tilted>0</tilted></_>
    <_>
      <rects>
        <_>
          6 6 4 18 -1.</_>
        <_>
          6 12 4 6 3.</_></rects>
      <tilted>0</tilted></_>
    <_>
      <rects>
        <_>
          6 11 3 5 -1.</_>
        <_>
          7 11 1 5 3.</_></rects>
      <tilted>0</tilted></_>
    <_>
      <rects>
        <_>
          6 11 10 9 -1.</_>
        <_>
          11 11 5 9 2.</_></rects>
      <tilted>0</tilted></_>
    <_>
      <rects>
        <_>
          6 12 3 1 -1.</_>
        <_>
          7 12 1 1 3.</_></rects>
      <tilted>0</tilted></_>
    <_>
      <rects>
        <_>
          7 7 6 6 -1.</_>
        <_>
          7 7 3 3 2.</_>
        <_>
          10 10 3 3 2.</_></rects>
      <tilted>0</tilted></_>
    <_>
      <rects>
        <_>
          7 8 5 15 -1.</_>
        <_>
          7 13 5 5 3.</_></rects>
      <tilted>0</tilted></_>
    <_>
      <rects>
        <_>
          7 11 2 2 -1.</_>
        <_>
          7 11 1 1 2.</_>
        <_>
          8 12 1 1 2.</_></rects>
      <tilted>0</tilted></_>
    <_>
      <rects>
        <_>
          7 11 3 3 -1.</_>
        <_>
          8 11 1 3 3.</_></rects>
      <tilted>0</tilted></_>
    <_>
      <rects>
        <_>
          7 12 14 12 -1.</_>
        <_>
          7 16 14 4 3.</_></rects>
      <tilted>0</tilted></_>
    <_>
      <rects>
        <_>
          7 18 6 6 -1.</_>
        <_>
          7 21 6 3 2.</_></rects>
      <tilted>0</tilted></_>
    <_>
      <rects>
        <_>
          8 2 3 9 -1.</_>
        <_>
          8 5 3 3 3.</_></rects>
      <tilted>0</tilted></_>
    <_>
      <rects>
        <_>
          8 8 12 3 -1.</_>
        <_>
          12 8 4 3 3.</_></rects>
      <tilted>0</tilted></_>
    <_>
      <rects>
        <_>
          9 6 2 8 -1.</_>
        <_>
          9 6 1 4 2.</_>
        <_>
          10 10 1 4 2.</_></rects>
      <tilted>0</tilted></_>
    <_>
      <rects>
        <_>
          9 8 7 8 -1.</_>
        <_>
          9 12 7 4 2.</_></rects>
      <tilted>0</tilted></_>
    <_>
      <rects>
        <_>
          9 10 3 4 -1.</_>
        <_>
          10 10 1 4 3.</_></rects>
      <tilted>0</tilted></_>
    <_>
      <rects>
        <_>
          10 9 3 6 -1.</_>
        <_>
          10 11 3 2 3.</_></rects>
      <tilted>0</tilted></_>
    <_>
      <rects>
        <_>
          10 11 6 3 -1.</_>
        <_>
          10 12 6 1 3.</_></rects>
      <tilted>0</tilted></_>
    <_>
      <rects>
        <_>
          10 12 2 2 -1.</_>
        <_>
          10 12 1 1 2.</_>
        <_>
          11 13 1 1 2.</_></rects>
      <tilted>0</tilted></_>
    <_>
      <rects>
        <_>
          11 8 7 6 -1.</_>
        <_>
          11 11 7 3 2.</_></rects>
      <tilted>0</tilted></_>
    <_>
      <rects>
        <_>
          11 12 2 2 -1.</_>
        <_>
          11 12 1 1 2.</_>
        <_>
          12 13 1 1 2.</_></rects>
      <tilted>0</tilted></_>
    <_>
      <rects>
        <_>
          12 8 3 6 -1.</_>
        <_>
          12 11 3 3 2.</_></rects>
      <tilted>0</tilted></_>
    <_>
      <rects>
        <_>
          12 11 1 3 -1.</_>
        <_>
          12 12 1 1 3.</_></rects>
      <tilted>0</tilted></_>
    <_>
      <rects>
        <_>
          12 11 2 2 -1.</_>
        <_>
          12 11 1 1 2.</_>
        <_>
          13 12 1 1 2.</_></rects>
      <tilted>0</tilted></_>
    <_>
      <rects>
        <_>
          12 11 1 4 -1.</_>
        <_>
          12 13 1 2 2.</_></rects>
      <tilted>0</tilted></_>
    <_>
      <rects>
        <_>
          12 11 6 4 -1.</_>
        <_>
          12 11 3 2 2.</_>
        <_>
          15 13 3 2 2.</_></rects>
      <tilted>0</tilted></_>
    <_>
      <rects>
        <_>
          12 12 1 2 -1.</_>
        <_>
          12 13 1 1 2.</_></rects>
      <tilted>0</tilted></_>
    <_>
      <rects>
        <_>
          12 12 1 3 -1.</_>
        <_>
          12 13 1 1 3.</_></rects>
      <tilted>0</tilted></_>
    <_>
      <rects>
        <_>
          12 12 2 2 -1.</_>
        <_>
          12 12 1 1 2.</_>
        <_>
          13 13 1 1 2.</_></rects>
      <tilted>0</tilted></_>
    <_>
      <rects>
        <_>
          13 12 2 2 -1.</_>
        <_>
          13 12 1 1 2.</_>
        <_>
          14 13 1 1 2.</_></rects>
      <tilted>0</tilted></_>
    <_>
      <rects>
        <_>
          13 15 2 2 -1.</_>
        <_>
          13 15 1 1 2.</_>
        <_>
          14 16 1 1 2.</_></rects>
      <tilted>0</tilted></_>
    <_>
      <rects>
        <_>
          14 1 9 2 -1.</_>
        <_>
          14 2 9 1 2.</_></rects>
      <tilted>0</tilted></_>
    <_>
      <rects>
        <_>
          14 11 2 4 -1.</_>
        <_>
          14 11 1 2 2.</_>
        <_>
          15 13 1 2 2.</_></rects>
      <tilted>0</tilted></_>
    <_>
      <rects>
        <_>
          14 13 3 1 -1.</_>
        <_>
          15 13 1 1 3.</_></rects>
      <tilted>0</tilted></_>
    <_>
      <rects>
        <_>
          14 15 2 2 -1.</_>
        <_>
          14 15 1 1 2.</_>
        <_>
          15 16 1 1 2.</_></rects>
      <tilted>0</tilted></_>
    <_>
      <rects>
        <_>
          15 10 2 2 -1.</_>
        <_>
          15 10 1 1 2.</_>
        <_>
          16 11 1 1 2.</_></rects>
      <tilted>0</tilted></_>
    <_>
      <rects>
        <_>
          15 12 3 1 -1.</_>
        <_>
          16 12 1 1 3.</_></rects>
      <tilted>0</tilted></_>
    <_>
      <rects>
        <_>
          16 13 3 2 -1.</_>
        <_>
          17 13 1 2 3.</_></rects>
      <tilted>0</tilted></_>
    <_>
      <rects>
        <_>
          17 6 4 5 -1.</_>
        <_>
          19 6 2 5 2.</_></rects>
      <tilted>0</tilted></_>
    <_>
      <rects>
        <_>
          17 8 6 3 -1.</_>
        <_>
          20 8 3 3 2.</_></rects>
      <tilted>0</tilted></_>
    <_>
      <rects>
        <_>
          17 9 1 3 -1.</_>
        <_>
          17 10 1 1 3.</_></rects>
      <tilted>0</tilted></_>
    <_>
      <rects>
        <_>
          17 14 3 1 -1.</_>
        <_>
          18 14 1 1 3.</_></rects>
      <tilted>0</tilted></_>
    <_>
      <rects>
        <_>
          18 1 4 14 -1.</_>
        <_>
          18 1 2 7 2.</_>
        <_>
          20 8 2 7 2.</_></rects>
      <tilted>0</tilted></_>
    <_>
      <rects>
        <_>
          18 10 3 4 -1.</_>
        <_>
          19 10 1 4 3.</_></rects>
      <tilted>0</tilted></_>
    <_>
      <rects>
        <_>
          19 5 1 6 -1.</_>
        <_>
          19 7 1 2 3.</_></rects>
      <tilted>0</tilted></_>
    <_>
      <rects>
        <_>
          22 19 2 4 -1.</_>
        <_>
          22 21 2 2 2.</_></rects>
      <tilted>0</tilted></_></features></cascade>
</opencv_storage>
