<?xml version="1.0"?>
<opencv_storage>
<stage1>
  <maxWeakCount>5</maxWeakCount>
  <stageThreshold>-7.1048611402511597e-01</stageThreshold>
  <weakClassifiers>
    <_>
      <internalNodes>
        0 -1 12030 -4.9001805484294891e-02</internalNodes>
      <leafValues>
        6.4444446563720703e-01 -5.4512637853622437e-01</leafValues></_>
    <_>
      <internalNodes>
        0 -1 150398 -5.4622739553451538e-03</internalNodes>
      <leafValues>
        4.8972451686859131e-01 -4.7556218504905701e-01</leafValues></_>
    <_>
      <internalNodes>
        0 -1 126068 5.4522510617971420e-04</internalNodes>
      <leafValues>
        -6.1165863275527954e-01 3.5822784900665283e-01</leafValues></_>
    <_>
      <internalNodes>
        0 -1 77815 8.7182121351361275e-03</internalNodes>
      <leafValues>
        -3.1010171771049500e-01 8.3173775672912598e-01</leafValues></_>
    <_>
      <internalNodes>
        0 -1 2130 -3.4307417809031904e-04</internalNodes>
      <leafValues>
        -7.0321041345596313e-01 3.2653906941413879e-01</leafValues></_></weakClassifiers></stage1>
</opencv_storage>
